3263 100
de -0.24681656 -0.32514617 0.5268647 -0.23834518 0.21145667 0.4064591 -0.7769261 0.46771586 0.886317 -0.6116711 0.6856315 -0.6138288 0.039594587 0.22919756 -0.93184006 -0.05325989 0.38679498 -0.13861564 -0.65364915 -0.76353896 1.4800406 0.4189774 0.4196711 -0.37792793 0.5591487 0.59090793 -0.084021926 -0.29129773 -0.8928795 -0.47464094 -0.88052976 0.1279221 1.1721506 -0.48449805 -0.32554057 0.56872 0.7806476 -0.7145937 -0.6477864 0.05057868 -0.78992945 0.41763625 -1.5592594 -0.44013947 0.27007955 -0.06400777 -1.6647958 0.89188176 -0.10907035 0.91387933 -0.50490314 0.9188967 -0.7040601 -0.10658806 0.0855342 -0.80515677 0.13707745 -1.0811656 -0.34708124 1.4019032 -0.81454074 0.1131749 -1.3061887 -0.30264723 -0.5407153 0.60772604 -0.29966718 1.133184 -0.11601437 0.62259156 0.28694192 0.84738994 -0.03305182 -1.2750988 0.22914585 -0.059932888 1.8881505 -0.87488943 -0.04561737 -0.467224 -0.6518594 0.5866946 1.0786599 0.7976865 -0.6198202 0.40521553 0.5569495 -1.2509238 -0.062494468 0.7329514 -0.48294035 -0.9199733 0.8329053 0.123807326 0.27367327 0.065962955 -0.9988064 -0.3598817 -0.037886273 2.0645177
que -0.61631125 -0.22797006 0.9689175 0.88054043 0.65168923 -0.5708912 -0.65972865 0.42956927 -0.28599396 -0.2915773 -1.0726485 -0.8056223 1.18192 0.99967706 0.61443895 -0.16365008 0.5105986 0.37089124 0.084421575 -0.7235751 0.3685116 -0.5263251 0.77433723 -1.2105585 -0.31152406 0.72138107 -0.9140245 0.69024813 0.39485678 -0.005897633 0.48197496 -0.70162094 0.52681345 -0.71821684 1.272793 0.797365 -0.001569296 1.3211555 0.18102568 0.8525812 0.2910401 -0.13968183 -1.3609716 -0.35424563 -0.42095417 0.65714353 0.48374602 -0.01203594 0.5149082 -0.1423834 -0.0014203094 -1.025853 0.11651756 0.24558105 0.30436552 0.7039739 0.42674544 0.29410586 0.042330254 0.09877661 -0.19436757 -0.23021683 -0.8559533 -0.15752007 0.3601746 1.0191509 0.4170108 -0.8127023 0.49672106 1.1651977 -0.5885519 -0.7296705 1.203674 -0.01623665 0.3460581 0.3624499 -0.5750328 -0.52696776 0.1685161 0.53862256 -1.298685 0.30559093 0.10888028 -0.5061554 0.32419425 -1.057519 -0.037838653 -1.4923477 1.0382686 -0.36300966 -0.24289192 -0.07529986 0.022451442 -0.7509484 -0.5554895 -0.7106711 0.89664453 -0.116797775 -0.26848006 0.30561066
a 1.6698592 0.023048472 -0.52253085 -0.20105928 1.1489798 0.4617264 -1.3126429 0.8215691 -0.69690466 0.5545258 0.2958832 0.5254395 0.65323704 -0.05124064 0.31243578 -0.8506989 0.43093002 1.0307702 -1.3574668 -0.880886 -0.23577698 -0.57327205 -0.034415558 -0.6627563 0.5810666 0.6661488 1.7209746 1.1375103 0.1460523 0.13936226 0.30234638 -0.9918611 -0.5355711 -0.9931942 0.42735943 -0.8407913 0.2808016 -1.0486673 -0.3825786 -0.114773355 -0.013027117 0.4248257 -0.53296417 -0.45425275 -0.46233007 -0.3653198 0.04723815 0.014240405 -0.37545094 -0.81340814 0.12962133 -0.40637973 -1.4043157 0.21772537 -0.59180075 -0.44948477 -1.2065055 -0.597608 -1.3977863 -0.4252634 0.5878103 -0.0108436765 1.5923773 0.4803229 -0.4538052 1.7627603 1.2211715 0.027850624 -0.8418024 0.48101544 0.38413242 0.3100324 0.32640114 -0.8306972 -0.049682826 0.43994543 0.12430095 0.037739236 0.029267482 0.1559921 -0.30312076 -0.8599022 -0.9384135 1.1541727 -1.170055 0.51876384 -0.64875877 -0.8752483 0.32642415 -0.22501767 -0.088497326 0.43018714 0.92600155 -0.88327295 -0.20307466 0.9117602 0.86571896 0.09436607 0.7254216 -1.4177141
o -1.1028551 1.4283184 -0.30966875 0.36511508 -0.027238512 -1.6952302 0.99942875 -0.8042491 0.004771154 -1.2476246 1.3648014 0.6111128 -0.14417659 0.39411953 1.2069339 0.80029607 1.917149 -0.5216695 -0.83603096 -0.51640844 -0.32230824 0.20651712 0.06541665 0.79802436 -0.29503608 -0.35159647 -0.20228967 -0.3896277 0.51939964 0.45976743 0.52558786 0.22999977 -0.847101 -0.9505974 -0.08276756 1.2710626 0.6393342 -0.7767923 -0.9503868 0.35807392 0.88317513 -0.36792484 0.34540027 0.90500855 0.5110833 0.5257827 -0.4278469 0.3046753 0.18257755 0.056488562 0.38008937 0.7178834 -1.1852769 -0.10694467 -0.52507734 1.8554394 0.50086313 -0.11043598 1.3778162 0.84601206 0.74063015 0.55468184 1.2332137 0.8814063 0.36831748 -0.66706175 0.17796485 0.23536025 -0.54778934 -0.73493993 1.1613626 -0.019792875 0.2929161 1.0016097 0.12510619 -0.36161372 -0.13755018 0.21750528 0.18094099 -0.8576136 0.11201804 0.043163072 0.81794876 0.25120825 0.03124538 0.99783325 0.30387223 -0.144221 0.74340826 -0.68428385 -0.67702407 1.8274367 -0.19751751 -0.1875015 0.85889333 -0.4056355 0.56917506 -0.51114655 0.037956044 0.9139616
e -0.5874523 9.795399e-05 -0.2836389 -0.81169444 -0.44768035 0.3112919 0.1424238 0.94128114 0.18383527 0.25622174 -0.14131345 0.28308722 -0.9270238 -0.44965565 -0.34312806 -0.21387061 0.3484691 -0.09374608 -0.2997134 -0.7816297 -0.33003572 -0.26364803 0.8558688 -0.052258484 -0.32135764 -0.7324193 -0.37721616 -0.30913574 0.11388722 -0.4483665 0.6803709 -0.22934708 0.38356733 0.032302924 0.3739249 0.1361942 -0.6028777 0.24177118 -0.3803781 -0.64425206 -0.025228363 -0.8143997 -1.1070569 0.476819 0.6389167 0.08116137 -0.5145353 1.3502845 -0.23527846 -0.12293377 0.20849629 0.2091214 0.27356762 -0.32388946 -0.47027537 -0.8943188 -0.022222191 -0.4657899 0.29808277 -0.44932672 -0.10288558 -0.41571853 1.0409684 -0.3061821 -0.23888774 0.051989008 0.5155248 0.89692736 -0.74105877 0.57502705 -0.19374914 0.63924295 -0.3513433 0.20666319 0.17689802 0.014725837 0.33878982 0.101868294 -0.47170803 -0.5723736 -0.59971035 -0.20559575 0.6566698 0.35739943 0.22458336 -0.17428806 0.6379096 -0.17486146 -0.6790536 -0.1552841 -0.025654854 -0.33428025 -0.11566623 0.17856242 0.25433806 -0.3151438 0.1616239 -0.053996798 -0.1270944 1.3754299
harry -0.82437956 0.34829146 -0.9011511 -0.54898745 -0.77627337 -0.38549587 0.962756 1.0012491 -1.2695599 -0.5664639 0.7556528 -0.92490333 0.55230427 0.12072346 -0.18421413 -0.84408265 0.037979353 0.11768418 -0.47474542 -0.66377527 -0.75258434 -0.65862465 0.18655278 0.41554093 0.1635639 -0.5052365 0.39808327 0.3053686 0.02592776 -0.9026855 0.5197502 -0.6551339 0.13412005 -0.8759424 0.42935818 0.8281131 0.85331887 -0.016450008 -0.055353895 0.6488954 0.07086959 -0.16061854 -0.255802 -0.9901152 -0.7096295 -0.75630337 0.5363916 0.70126045 -0.61920685 0.2492584 0.41704446 -0.35386333 1.1673876 0.79364485 -0.057930194 1.017745 0.30762145 -0.9118801 -0.15966274 -0.6261459 0.6255432 -0.124082044 2.0335035 -1.0230979 0.07342801 0.7768402 0.33172965 0.2349322 0.11610224 0.21119946 0.105232015 -0.031574033 0.4575859 1.2390921 0.73957145 0.08114883 -0.93297714 -0.514248 -0.7340148 0.7514537 -0.44735795 -0.51830137 -0.42226037 -0.3642434 -0.15808016 -0.37961143 0.6093077 0.94807804 -1.018323 -0.25819463 0.20294032 1.0652156 -0.5885042 -0.46802035 0.39083207 0.25609645 0.32876676 0.20651245 0.7430545 -0.074184194
se 0.22148128 -0.35604006 -0.19938628 0.041314777 -0.22898702 -1.0706085 0.7637393 0.30015874 -0.74577194 -1.0749428 0.627324 -0.028688548 0.061452217 0.841981 0.41984883 -0.114908986 0.25151056 0.31728145 0.18476655 -0.8180831 -0.52198005 -0.9558689 1.3474635 -0.41409537 0.30917296 -0.20939502 -0.011722205 0.44577816 -0.3764809 -0.1573596 1.2831427 -0.056332897 0.40662372 0.06835952 -0.7492408 -0.0862165 0.01178949 0.48654753 -0.78805614 0.48915407 -0.43038243 -0.89385575 0.460565 -0.041006763 -0.54525274 0.7934675 -0.4858382 -0.5640267 -0.19036515 -1.0493635 0.46976194 -0.4762079 0.14370033 -0.66980547 -0.5575232 -0.3127744 -0.3654122 -1.1149787 -0.33412695 -0.07040491 -0.44898835 -0.6530873 1.5061361 -0.13980523 -0.8398331 1.3449153 -0.73489225 -0.3909995 -0.36702007 -0.16485865 -0.17516328 -0.5795084 -0.008967877 1.5131583 -0.14753515 -0.23918754 -0.15210165 -0.04439493 -0.4943241 0.83197695 0.2565871 -0.32167777 -0.57017183 0.10070569 -0.39544162 -0.5841217 0.7091637 -0.041695282 0.51222146 -0.06830759 -0.23544085 -0.26622748 -0.661457 -0.5717403 -0.5646051 -0.07345132 1.3672483 -0.47026435 0.18833716 -0.8013192
não 0.32288998 -0.19112699 0.4175779 0.7016035 0.17290148 -0.8127362 0.38043565 -0.59910256 -1.3104763 0.31143045 -0.8887677 -0.5360626 0.7244301 0.7064595 1.2276083 0.7070772 0.36089748 0.66653436 -0.31152537 -0.8177566 1.1551961 0.15928258 -0.31722042 -0.4236628 0.024508826 0.023721723 -0.46740773 1.1579077 0.12295561 -0.011751124 -0.17379563 0.35159683 -0.33800563 -0.27693704 1.0863857 0.668227 0.53545445 0.44775003 0.4182289 0.7873502 0.6199877 -0.18436454 -0.40190595 0.011924186 0.74681926 -0.2490552 -0.36978674 -0.81837124 0.9622213 -0.25227317 -0.12920414 -0.885724 1.8027655 0.16311508 0.51097274 1.0290965 -0.42672908 0.55489796 -0.8778069 0.47527444 0.39498344 -0.7385267 -1.7368661 -0.56504476 0.12011772 1.6274575 0.33674154 0.6241931 0.25933245 0.55495447 -0.27477986 -0.6944447 1.5861514 0.34050137 -0.5913183 0.3918942 -0.12296703 -0.38503504 0.72765183 -0.6939133 -1.2170647 -0.21575347 -1.3193458 0.23194963 0.116051786 -0.8515907 0.49214858 0.52839893 0.6885665 -0.61616725 -0.11345037 -0.58880913 -0.0896759 0.15106267 -0.36875704 -0.02229761 0.31631577 -0.4116576 0.48929086 -0.9532427
para -0.8827944 0.448238 -0.3192373 0.30637562 0.93584573 0.77610964 1.3235675 0.679395 -0.8283627 -0.6882077 0.6613542 -0.6954692 -0.565314 0.12234292 0.96155155 0.54669476 -1.5375074 -0.037106615 -0.8584485 -1.2669411 0.18801515 0.6856168 0.68397516 0.030863183 1.59797 0.69236004 0.45050025 -0.9661263 -0.71314555 -0.88786083 1.0080643 -1.1202141 1.0183985 -1.1102095 -0.32258934 0.03511432 -0.3215597 0.45080805 0.8791612 -0.74500036 -0.23429275 0.2752405 -0.30815488 -0.21387532 0.3164754 -0.67953 -0.18399672 -0.1276993 -0.33284876 0.6252357 -0.15143573 -0.31799352 -0.419377 -0.8061438 0.33445317 0.5374063 0.6686004 -0.037976034 0.3176194 0.43415338 -0.7347649 0.11534716 0.9262668 0.71118003 -0.3886083 0.4880282 0.31201106 1.2464702 -0.43657234 0.5982363 -0.7774511 0.15693377 0.53375506 -0.14739545 -0.09350473 -2.0229137 -0.28976333 -0.116939776 -0.3676655 0.3393249 0.07496102 -1.0476576 0.6195174 -0.10905752 1.5828243 1.0875508 0.69108456 -0.8902962 -0.39471436 -0.19485785 -0.7370712 0.3496232 0.6936679 -0.37589237 -0.12530525 0.94834197 0.43880257 -0.015561614 0.5205485 -0.5606556
um -0.83462244 -0.393904 -0.833675 0.69154996 -1.0756041 -1.3912736 -0.08904972 0.18761174 -0.9224108 -1.214809 0.9377856 -0.097686894 -1.0188987 -0.67339176 -0.18574479 0.8107501 1.6179324 -1.2890847 0.19111907 -1.5667707 0.8654343 1.2558521 0.2230295 -0.29762602 -0.4721478 -0.9556123 -0.8632582 0.28150073 -0.6673058 0.91079664 1.9899017 1.0492411 0.2650284 0.805184 -0.6477815 1.7750726 0.7562696 1.2185439 -1.5313401 -0.14375828 0.6488751 -0.07919875 -0.5501308 0.27684742 0.6459275 1.0296047 -1.4389678 1.0905021 1.2179962 1.0876315 -0.40627396 1.9441471 -0.6712593 -0.1751093 0.17442991 -0.07899765 -0.21424219 -0.45142773 1.607378 0.5000371 0.62945443 0.34280172 1.3380988 -0.10418328 -0.9380385 -0.52399445 -1.0226678 -0.52498484 -0.2645672 -1.1873733 0.74063504 0.9082901 -0.043752596 0.43034863 0.7482143 0.041181732 0.34138933 -0.8332717 1.013436 -0.11676125 0.31298983 0.5754017 1.1014763 1.7228519 -0.060991134 0.08216917 -1.323174 0.30730435 1.3851672 0.7454926 -0.5420413 0.6967853 0.7094414 1.6549584 1.0266079 -1.2406161 -0.3832524 0.5030796 0.6265423 0.9286586
uma 1.8077667 -0.36624455 0.56039065 -0.48060623 0.11505366 -0.59882605 -1.3261744 1.6420004 -0.18373959 0.34245664 0.74067736 0.14115754 0.64032626 -0.9335354 0.06608886 -0.01453504 0.16082707 0.24082394 -0.27696386 -1.6976906 -0.22043362 -0.7097478 0.49587208 -1.3913815 -1.0032477 0.38454187 0.61924535 1.4026682 0.6686952 -0.43609595 1.1674893 0.13589886 1.5517789 0.9332054 1.4498433 0.38852412 0.29810297 -0.65795213 -1.4580599 -0.8488254 0.25792378 0.30731082 -1.470233 -1.1715937 -0.5725072 -0.49066833 -0.80054265 0.72430354 0.24219456 -0.3837997 -1.2618568 1.1057906 -0.3084528 0.8069312 0.03323476 -1.0543324 -1.9102355 -0.36302975 -0.3449863 -0.37160584 -0.053104017 0.8150961 0.7794934 0.4446716 -0.64201313 1.6673299 -0.18028918 -0.9836591 -0.16978951 -0.21622556 -0.12065469 1.0302378 -0.36382464 -0.24263862 -0.35373652 0.7033411 0.590413 -0.8803445 0.8642221 0.5585841 0.38453794 0.41398174 -0.049730092 2.0752053 -1.6852535 1.1048157 -0.8453288 -0.60459936 1.476933 -0.28886428 0.94821686 0.32636523 0.4653572 0.27045587 0.013096944 -0.35602885 -0.2290409 -0.5326008 1.3535426 -0.33055842
os 0.31754747 0.9417625 0.24574329 1.3273104 0.7492159 0.45244038 -0.55389225 1.9840316 0.8531209 -1.3504095 0.69569 -0.20966896 -1.75397 0.37209868 -0.062466934 -1.7006555 -0.7169923 -0.9354221 -0.4937097 1.0040556 0.16571501 -1.8650327 0.575144 -0.5295344 -0.35436466 -0.74290437 -0.47999078 0.35538206 0.09971808 0.24452424 -0.13106975 -0.9381547 0.28922352 -0.6077884 -0.9780064 0.12540936 -0.013891511 0.23398764 -0.13213833 -0.27568105 0.14938322 -0.47176802 -0.26963666 0.79949206 0.14268218 -0.33099785 2.5598404 -0.09960534 1.3566209 1.1122808 0.8522418 -0.71419734 1.8164252 0.43098477 -2.6724079 0.5066857 0.28106666 1.0637054 0.2484827 -1.0880363 -0.27908853 -0.56323636 0.05853924 -0.6698472 -1.305237 -0.3587793 0.65131867 1.7791456 -1.2788498 1.2952117 -0.31760418 1.6977953 -0.04045386 1.3392056 -0.92077094 0.68011415 -0.20497134 1.8646048 -1.0432472 -0.49045628 0.15653725 0.26469046 0.3285919 -0.83626086 0.79787946 -0.3012061 -0.64017767 -1.958687 1.1667364 0.59320945 1.382099 -1.633088 -0.98575664 1.1319305 0.09330256 0.5193004 -0.7598099 -1.2936026 -2.1917372 -0.55097103
com -0.020077094 -0.74590963 0.41793615 -0.3707204 0.34816575 1.058528 -0.2878594 -0.06334122 -0.7946288 0.36544505 -0.58746624 -1.1582683 -0.8422116 0.9093014 0.008952365 -0.5557557 0.63716125 0.6962709 -0.14956126 -0.20270763 0.21622263 0.6544145 0.4805527 -0.05594542 0.6073503 0.78373307 0.12345186 0.590785 0.121309884 -0.021064483 -1.0952854 -0.89525306 -0.5994493 -0.8492191 0.60668385 -0.67782384 -0.48868287 -0.2917771 0.49681786 -0.23448229 -1.7234051 1.2748057 -0.31024146 1.0362804 -0.11687168 -1.3530538 0.16252007 0.5960821 -0.123880796 0.20033143 1.0009555 0.3010811 -0.04109805 -0.6843891 0.41211054 0.04393298 0.31323153 -0.1889613 0.2547901 -0.52399343 -0.45454293 -0.45048568 -0.170439 0.2720651 -0.041792117 0.7312738 0.8771179 0.99099886 -0.70810944 0.098659374 0.42100418 0.28811628 -0.086494096 -0.14093147 0.70502645 0.8720109 1.5001386 -0.42326036 -0.5828072 0.31635213 -1.406973 0.4708076 0.023854576 0.80882263 -0.17621925 -0.6231755 0.8529066 -0.23016007 -1.3892572 -0.103722416 0.66622645 -0.31778228 -0.3766671 0.16995215 0.5482843 0.3173451 0.2200443 0.67461693 0.76893336 0.75402355
do -1.5160929 1.292508 -0.43025196 0.34854046 -0.8896184 -0.63265556 0.23044695 -0.97731096 -0.4846577 -0.73687637 0.13589036 0.74883735 -1.0530803 -0.33851087 0.58418065 1.0940663 1.1058778 -0.28778815 -0.24439132 -1.5083386 0.33548942 0.879351 0.55903935 0.8596746 0.6757732 0.37894738 -0.01457081 -1.6280262 -0.0106795225 0.7108561 0.08149401 0.18769932 1.4873815 -1.0359286 0.04558479 -0.13078414 -1.2752084 -0.82039154 0.13511974 -0.8477908 0.54708856 0.2060908 0.07153124 1.6331042 0.337321 -0.6574454 -1.1062442 0.5464854 0.1857565 0.24889982 -0.620586 0.9006676 -1.7126713 0.13775797 -0.28732398 1.7703074 0.50414574 -0.28367195 1.0021102 0.92705226 0.7353147 0.9198688 1.1039075 0.78201133 0.7786234 0.049962815 0.25378013 0.8786318 1.2236704 -0.4507205 1.0261459 0.7829004 -0.806368 0.7911214 0.6825403 -0.105531305 1.2767735 -0.12769566 1.30362 -0.4866633 0.10464046 0.6771062 1.708746 -0.33411196 0.673622 1.0988581 0.7402398 0.33687583 0.76832676 -0.34389183 0.22817585 2.080796 -0.59910566 -0.25616178 -0.04083236 -0.36123267 0.74143815 -0.6484445 -0.45938239 2.152897
em 0.9900269 0.9236397 0.8746016 -1.2134224 0.03611514 0.50557363 0.39296272 1.6031517 1.3458475 -1.00639 1.5474039 -1.1389334 -0.31577128 -0.94225144 -0.5886278 0.08567634 0.4006586 -0.22269633 0.4382376 -1.0415078 -0.11751311 0.3674019 0.8675279 -0.18499132 -0.7851731 -0.34359592 0.29016593 -0.44149715 1.2111908 -1.6078314 -1.3969058 -1.4810177 0.7282406 0.4341354 -0.6806049 -0.43381247 1.0749011 -1.0266904 0.2429488 0.32528362 0.62564343 -0.09969322 0.30411747 0.16233557 1.429099 -0.07139647 -0.9259457 -0.06449583 0.24300912 0.35758233 0.04128298 1.8123751 0.42072484 0.056679297 -0.8967868 -0.48737547 1.4072218 0.9407035 -1.3109287 0.5464076 -1.2070577 0.19780451 -0.33847708 0.6838668 0.51215047 0.4327156 0.5387026 -0.025445996 -0.7548618 1.317678 0.009034956 -1.4749914 -0.120785035 -0.58597416 0.26803595 -0.85075486 1.7620866 -0.41288412 -0.39670426 -0.3859323 -0.7897212 -1.103498 -0.52681106 0.08237492 -0.039931983 0.766981 1.0693067 0.76375765 -1.3416239 -0.22611874 0.95379734 -0.7096995 0.7536639 0.90028566 -0.5410504 -0.8598117 -0.12121163 0.58614075 0.112898655 0.6165924
ele -0.33402157 0.78127563 -0.5702819 0.77553165 -0.15718849 -1.3137294 -0.038952645 1.0394481 -0.5512966 -1.0389506 0.5559007 -0.602817 0.89990294 0.58252364 0.30783933 0.06524626 -0.037038255 -0.05294537 0.58128035 -0.41047266 -0.059567068 -0.25697938 -0.03959894 0.74751854 -0.267349 -0.55166024 -0.03184836 0.6419369 -0.1791843 -0.6445096 0.15280831 -0.51686716 -0.013460851 -0.09058799 -0.23697199 1.2834059 1.2768952 0.06285263 -0.5505538 0.65828735 0.529403 0.26692936 -0.9303692 -0.29991403 -0.5727851 -0.22714843 -0.025535697 -0.109517485 -0.46480444 -0.6203803 0.27878547 -0.26700002 0.19862057 0.90628195 0.5518369 0.94200313 0.4120818 -0.98348904 -0.16912843 0.6341454 0.49165332 -0.26156205 1.0696789 -0.23890294 0.52840036 -0.038329303 -0.265018 -0.24856876 0.037485443 0.99128276 -0.11557925 -0.18970762 -0.17816758 0.4581737 0.6165339 0.15787695 -0.06324761 -0.13320199 -0.59978116 0.1898772 -0.38700745 -0.42698294 0.09877947 -0.17649898 -0.9180149 -0.5034747 0.12980457 0.24445076 0.06595157 0.4066008 -0.07422268 0.3710459 -0.33091033 -0.21266097 -0.11312493 -0.22489162 0.23765442 0.23917575 0.29471898 0.16687107
da 0.5085844 -1.6992682 -0.17483819 0.5982765 0.7349804 0.86910224 -1.2737161 0.6279134 -0.11809447 0.93985546 -0.3335792 -0.34753126 -1.49164 0.1724532 -0.857737 1.461094 -1.3008898 0.8233787 -0.6210231 -1.6006866 0.6839243 0.2687555 1.5310408 0.3162213 1.5133771 2.092784 2.489069 0.05236464 -1.1368575 -0.3237016 1.7800492 -0.5103538 1.2815357 -1.2931138 0.64239895 -1.6846448 -0.9058201 -1.0796998 -0.5125301 -1.52358 0.7586781 -0.16318858 -0.96837264 -0.01030601 -0.46065718 -0.9501794 -0.67596585 0.028109467 -0.36076003 0.87070006 -0.50904125 -0.1912037 -0.7565866 0.5132741 -0.370552 -0.16104385 -0.7512386 -0.7455736 -1.1173941 0.637347 0.36024088 0.833624 1.8469456 1.5972987 -0.97316283 1.3648915 0.53030735 0.5613259 0.92229325 1.3740487 1.6831571 2.0895503 0.12101148 -0.7138376 -0.25210342 -1.3173822 2.2526147 0.094703905 1.5889167 -0.48254633 0.2769016 -1.3131895 -0.55533445 -0.2110996 -1.3476547 1.0155882 -0.11150537 -1.0558726 -0.43773466 -0.5282958 0.51745796 1.2214485 1.436898 -0.33806574 -1.1374286 1.7480247 -0.66779673 -0.62557787 -0.4494341 0.5775255
disse 0.026255803 -1.1274843 0.07213898 -1.0413895 1.2253965 -1.2814183 0.908694 -0.13109271 -0.119066864 -0.1595575 -1.1902434 -0.13261236 0.6787095 -0.9661835 0.90492517 -1.0166031 -0.60128224 0.29567203 1.4016429 -0.2582229 1.2916671 0.22674029 -2.238561 -0.682347 -0.5399755 0.34470928 0.4432016 -1.3500384 -0.8331431 0.45454416 0.63578224 0.1666984 -2.1548905 -0.38919058 0.3972151 0.8440502 -0.8322382 0.11338414 -0.21870275 -1.3776826 1.1865878 -0.38560814 0.098285444 0.40293172 1.3565828 -0.32332963 -0.81557035 -0.38057905 0.18940067 -0.6315978 0.91511863 0.52192414 1.3691962 -0.935724 0.74750525 -1.4791268 0.30175564 0.9680571 0.32532933 0.5290283 -0.41661066 -1.2162163 -0.24627486 -0.45387548 0.954593 -0.20692737 0.6467782 -0.39083007 0.30156493 -0.5260697 -0.79746264 0.45254776 0.5757624 0.12165865 0.13434245 0.6803672 0.9126465 1.3721828 -0.019373406 0.45316258 -1.1245579 1.5292586 0.4525421 1.3608527 -0.8427954 0.20692946 1.2323828 0.039794814 0.8430655 -0.8002551 1.0800102 0.750251 -0.051975053 -0.8152783 1.6726875 1.4029061 -0.8060815 -0.07317878 0.4500266 -0.435752
é 1.3978695 -0.56222755 -0.20126349 0.28675953 0.8336729 -1.5378731 1.027484 -0.22457811 -0.1354592 -1.390391 -0.04588942 -0.9987208 1.172222 1.9713014 1.1626761 0.73328114 0.11807372 1.3260667 2.0590878 0.51498383 1.3054962 1.2404239 -0.8631281 -0.36255354 1.0021834 0.7985082 -1.49 0.6686587 0.5321114 0.22911744 0.79385954 1.28694 -0.813539 -2.038393 0.13645239 -0.43662924 0.6541072 -0.3208169 1.1258866 -1.3097507 -0.36742255 -0.2656737 0.52353054 0.48711967 0.13857277 0.16416907 -0.36275598 -0.5519629 2.4085011 -1.1007718 0.42659667 0.50704455 0.5573007 -0.87190366 1.0587457 1.0733408 -0.06641372 0.6940716 -0.3177735 0.06741569 -0.61725205 1.5253733 0.69770277 0.90153784 0.545468 -0.14339279 1.1991098 -0.74968797 -0.90151525 0.019633515 -0.6213499 -0.4188834 0.9758966 -0.343067 1.4602007 0.32840297 -0.035408523 0.9897694 -0.3745076 0.03822655 -0.5535692 0.6138732 -0.18470496 0.27500877 -0.4388675 -0.10535365 0.24816805 0.04465437 -0.09267687 -0.3901762 2.2808344 1.4150208 -0.3388671 0.379301 0.5656636 0.4389185 0.47246584 0.7622471 -0.22323942 -0.13769788
no 0.16095561 1.5113641 -0.52690846 0.65511143 -1.190173 1.355202 1.6160085 -0.414417 -0.11033964 -0.54450816 0.7031548 0.67728335 -0.6474962 0.41990924 0.36775732 0.4018657 2.0748103 -1.5216843 0.028698033 -1.0355152 -0.46823946 1.860352 -0.31753153 0.13163571 -1.1406615 -0.7548511 0.87733877 -1.2370375 1.042358 1.1089717 0.3027237 -1.3240626 0.9912539 -0.4266084 -0.5598248 0.78190804 -1.801698 -1.5555547 -0.2440436 -0.75555843 1.3841846 0.77626175 1.1384747 1.6722314 0.99216074 -0.5096224 -0.60218364 -0.5538316 -0.12949441 0.54684347 -0.8619336 0.117343806 -3.0504553 -1.0342679 -0.28576946 2.4410055 0.746252 0.04098047 0.9957287 0.93164253 -0.1208422 -0.15007791 1.1272944 1.0474296 0.24514891 1.1343203 -0.17806363 0.019504143 -0.005019786 -0.39990994 0.28656793 -0.5260591 -1.2945471 -0.36053437 -0.18500127 -0.24255562 1.5394884 0.36740413 -0.23395215 0.05466612 -1.3060473 -0.45536622 1.3776047 0.64575326 1.0293231 1.0664161 -0.07693591 0.3587186 0.04087487 0.13768908 0.6613938 1.2263393 -0.79604197 0.92505974 -1.2055104 -1.0732951 0.43316132 0.58333963 0.027693406 1.8656386
rony -0.10530119 0.29753095 -0.6788102 1.0657914 0.4325312 -0.4317699 0.10411415 0.64693224 -0.50482786 0.2374561 0.67903936 -0.8972154 0.33931342 1.0046296 1.3913218 -0.15227437 -1.5095155 0.41745788 -0.65543205 -0.91657025 -2.1545708 0.47811428 0.15017354 0.8011705 -0.42485705 -0.51951045 -0.008375198 0.25263417 -0.9364882 -0.6741868 -0.15113668 -0.59135044 0.37370843 -0.421616 0.19657908 0.51011497 0.4288769 0.5735733 0.18539627 0.2823556 -0.1940567 -0.37301672 -1.3513476 -0.40012926 -0.0030942007 -0.5845184 0.39891863 -0.7166262 0.012411061 0.37920228 0.6291971 -0.679641 0.610649 0.15898244 -0.48378235 0.73403656 0.47227448 -0.50383663 -1.1376446 -0.5744254 0.15205473 0.05895291 1.1322663 -1.2197517 -0.9291893 0.36192492 0.36885235 -0.39715406 -0.47677147 -0.08413779 0.4340618 -0.66064537 -0.0995153 1.3449997 0.74888766 0.3644702 -0.4019262 0.012486548 -1.111312 0.4496261 -0.5579275 0.050749242 -0.60631806 -0.34410325 -0.9068551 0.37214562 0.89167947 0.88983434 -0.0951796 0.20247498 0.6774419 0.9836729 0.57889134 0.21833928 0.8093995 -0.04224433 -0.08556689 0.748916 -1.6544462 -0.8665376
na 1.4852371 -1.6079088 0.9064667 -0.43382716 -0.3275027 1.42089 -0.68337035 0.8633055 0.90890527 1.0572963 1.12971 -0.6479105 0.83196807 0.30839032 -0.69450885 -0.14250094 -0.55221546 0.54304504 -0.056009702 -0.44358838 -0.5924668 -0.44986057 0.7981641 -0.5315655 0.4310337 1.5194157 1.620679 1.1027309 0.042452298 0.48600882 1.2765536 -2.3930833 0.6746798 -1.2834097 0.95645696 -1.1579098 -1.0846226 -2.2761788 -0.12547897 -0.6357775 1.017588 -1.3709469 0.7474127 -0.4949974 -0.07490248 -0.68040866 -0.4136108 -0.53976613 -1.1094533 0.20591262 -0.5053548 0.95454687 -0.70134336 0.2640138 -0.86887205 -1.1186001 -0.67640966 -0.41415736 -2.072399 -0.3170156 -0.44385976 1.0104272 1.3188922 2.2465568 -0.18337487 1.7551277 0.6908892 0.4012681 0.026862752 0.8457741 0.56469107 0.9975873 -0.048566077 -1.306389 -0.31558704 -0.3369796 1.2509695 -0.7587088 0.8779159 0.6904257 -0.8387241 -2.2145467 -1.9330449 0.7156257 -1.260126 0.46315295 0.1259405 -0.6249852 -1.3052939 0.053687975 0.95361155 0.42298245 1.6131057 0.02714222 -1.3078412 0.6275809 -0.43234593 0.80306685 0.77777076 -0.31711555
você 0.18097961 0.76679415 -0.12506948 0.7244669 -0.12822002 -2.6013339 0.5597947 0.5312163 -1.350427 -0.5858475 -0.87869084 -1.5673583 1.3995285 0.7257448 1.3191345 0.22038963 -0.80011666 0.69681597 2.209831 0.39248845 1.1889176 0.72822076 -0.8724479 1.0161686 0.8807272 1.2067726 -0.8593844 1.154298 -0.35801935 0.2961927 -0.36601517 -0.18839473 -0.9360532 -1.5966483 0.1763982 1.3236947 1.3176663 0.4086556 -0.4871732 0.41056004 0.92291003 -1.0150827 -0.9599232 -0.27617955 -0.15029737 0.06893898 0.34800214 -1.0532774 0.738211 -1.4276285 -0.0740644 -0.6986638 0.5092014 0.772345 0.9458637 0.37472817 -0.084845 -0.7895281 -0.80205613 1.017192 -0.35046545 0.111771636 -0.0637631 -0.25811097 0.6873875 0.070510976 0.31439224 -1.0078901 -0.4450898 0.6984601 -1.9727883 -0.32246184 0.34672058 -0.6843724 0.11416901 1.0433465 -0.8337523 0.7802534 -0.5248856 -0.04888836 -0.9381904 -0.33934227 -0.31639647 0.12702712 -1.1965456 0.10987176 0.33145213 -0.26448777 0.96509933 -0.23785964 0.76749974 -0.018398039 -0.79581803 0.2996202 -0.19347782 -0.7695523 0.06207976 0.38498643 -0.07711454 0.4717105
mas -0.66875285 -0.5069608 -0.32541224 0.04137513 0.16007958 -0.7469431 -0.20975249 0.61844236 0.4645399 -0.20000969 -0.72273046 -0.24787106 1.1339959 0.20689999 0.6424383 0.07367536 0.52451706 -0.49709347 0.25767112 -1.2430159 0.90103865 -0.16364259 -0.19696498 -0.7880182 -0.5531559 -0.1560765 -0.6037889 -0.10552788 0.20709771 -0.41487718 0.92620635 -0.059213396 -0.68550867 0.50548637 0.54814714 0.50526506 -0.05474946 0.779109 0.24544361 0.531184 0.36321163 -0.13998666 -1.1336164 -0.07330705 0.10682697 -0.082454085 0.12021366 0.1534367 -0.18136708 -0.6023787 0.30604497 -0.31752068 0.748485 0.3622202 0.2757795 0.26564127 0.13109596 0.40597445 -0.3876452 -0.08703293 -0.36553186 -0.76637924 0.121703215 -0.59679765 0.7352632 0.5477728 0.3149129 -0.035120334 0.89515424 1.4770646 -0.017759226 -0.17480154 0.588791 -0.09394332 0.35574248 0.40458956 0.32476005 -0.019673955 0.24694607 0.21401298 -1.1364899 -0.36031142 -0.12973957 0.29550794 -0.50811553 -0.82337165 0.4040511 -0.54132706 0.023407672 -0.2539338 0.27429867 -0.49889448 -0.07432896 -0.9563347 -0.5056009 0.48740005 0.912206 -0.0018380354 0.60805154 0.32290924
por 0.050686263 0.022179406 -0.18234344 -1.0425291 -0.9676485 -0.84269464 1.0327249 0.19413584 -0.6610565 -0.8523884 -0.286307 -0.34142905 -1.2074457 0.55840874 -0.62496185 0.9745722 -0.11660679 1.4216431 -1.3991942 -1.0593065 -0.68511385 1.1489468 0.1296467 0.51112205 -0.11445393 -0.82617843 -0.11528737 -2.0310156 -0.20005128 -0.6861148 0.55209804 -0.1234115 0.6673074 -0.60179317 -0.815451 -0.23503669 0.4214726 -1.118273 1.0264075 -1.169939 -0.70559365 0.7917209 1.4259667 0.8417349 0.5598999 -0.48162177 0.630877 -1.0898391 0.6712684 0.5173147 0.55004627 2.0125506 0.79599667 -0.51390976 1.1803112 -0.15443408 0.7854404 1.397071 -0.10641159 -0.032225415 -0.91821 0.71060187 -1.3590653 1.5700372 0.5962894 -0.28277332 -0.17670166 -1.2834102 -2.001715 1.7582439 -0.9018693 -0.6738666 -0.34076202 -0.47481477 0.9226903 -0.1214591 1.1600914 0.6232488 -0.15257224 -0.5726781 0.75357527 -0.9703882 -0.69781053 -0.16839519 0.89644307 0.36757898 0.39278638 -0.08709658 0.23838532 0.8736564 0.3634148 -0.37420452 1.0459801 0.8309603 0.6832695 -1.1856802 0.8100371 -1.1644266 0.90449417 -0.66389495
as 0.09101124 2.0331206 -0.0017974466 -0.6051687 -0.40275165 -1.2877227 -1.1232228 1.4354539 1.0728178 0.70712394 -0.2149973 1.026113 -0.7844353 -0.30932167 -2.2512548 -0.3355907 2.5170567 -0.41940513 -1.7240523 -0.75410676 -0.6782606 -0.6194713 -0.6715579 -2.0353754 0.82591957 -1.6305114 -1.8583649 -1.0807931 -0.6876106 0.12753613 -0.64419985 1.0417111 -1.0938833 0.029461803 -1.9610536 2.2960582 1.4846123 -0.7516265 -0.5280691 -0.90794057 -0.6965231 -1.4933478 0.2564931 0.42188445 -1.1018565 -0.98640126 0.8568564 -1.393023 -1.1982716 0.9272283 1.3077832 -1.4146407 -1.8162178 0.49320614 -2.9250998 -0.8251484 0.39944887 0.4012632 -1.9266133 -0.79826874 1.2925551 -0.5766561 -1.0247209 -0.09356407 0.66921747 1.0959752 0.4629597 -0.59083253 -2.4456038 -1.0458586 -1.8075426 -0.5117516 -0.8256599 -0.026785359 -0.29318464 -0.823015 -1.3180697 -0.40055168 -0.8587387 0.8763438 1.739565 0.7240289 -0.6999562 0.16033329 0.7409604 -0.1865429 1.2987411 0.87240916 -0.8271204 1.972795 -1.250276 -1.44494 -0.027819179 0.6389818 1.3830476 -0.28588372 -1.0158321 0.5264585 -1.3714283 0.88924605
mais -0.27237657 0.61397535 -1.0114986 0.21989837 -0.17358129 0.5252404 0.06566023 0.6725746 -0.47803298 0.72128165 -0.48717415 -0.09697986 1.2588212 -0.27620664 -0.24825503 0.2086602 0.15943366 -0.28819606 1.2454108 -2.129262 0.6362153 -0.7158757 0.10873391 -0.5416115 -1.8272183 -1.3899038 -0.7298954 -1.2650702 0.8768325 1.0166649 -0.12309494 0.5599841 -0.010403886 1.0481411 -0.06346467 0.70206076 -0.842247 -0.49453568 1.2161644 0.027595548 1.6171389 0.15222083 -0.4059421 -0.9550675 0.61666334 0.822994 0.93433696 0.0011427297 1.6068574 -0.14529337 0.60211664 0.6499026 0.833149 -0.097097315 -0.6896635 0.43394187 0.2130346 -0.13510774 -1.2350873 0.003932885 -9.9525445e-05 -0.334816 -0.15579523 0.25776386 0.6187154 0.2928938 0.6307525 -0.061407864 -0.21261346 1.0420694 -0.02399882 -0.72888094 0.12723848 -0.085540354 0.08930943 -0.1509239 0.6890632 -0.8683313 1.3303405 -0.3404062 -0.20555075 0.7788831 -0.8571521 0.13140534 0.4846989 -0.37562975 -1.0239378 -0.45127776 0.92091525 0.52387315 1.0051919 -0.91886187 -0.39127892 -1.4990749 -0.8273396 -1.0533864 -0.22662565 -0.5084037 0.4286753 -0.14661677
estava 0.48691452 -0.55175644 -0.46417198 0.062285606 0.8595356 -0.6299013 -0.3101414 -0.12309164 1.0744667 -0.26557896 0.49263605 0.2267216 0.3970865 1.0252467 -1.312957 -0.4191779 1.5426159 -0.21796153 0.3128819 0.83160585 -0.57955045 0.6848423 0.78154474 -0.8076522 0.11310821 -0.33396724 -0.765309 0.1751751 -0.9538334 -0.13981968 0.1852122 -0.80173045 1.3825327 -0.82483023 -0.40266317 -0.9686198 -1.8600248 -0.9885394 0.017932568 0.012406271 -0.12522405 -0.6564728 0.39806494 1.7009822 -0.16216849 -0.5558628 -0.41611922 -0.32282734 0.16020168 0.29628786 0.48927447 0.91568017 0.9566792 -0.31920728 -0.043180384 0.746469 -0.047216427 0.3477327 -0.20147146 -0.2629768 -0.050694063 0.333772 0.9558721 0.33252248 0.39738548 0.78400826 -0.4225157 -0.6230581 -0.65652514 -0.7620498 0.007016971 1.9312736 0.029352728 -1.2614031 1.5849712 -0.31307927 -0.08040501 0.532726 0.095805444 0.22343911 -0.25153315 1.4479502 0.7547893 -0.38316634 0.26117045 -1.2108765 0.7288881 1.3417432 2.1064527 1.0612609 0.39207932 1.3395789 -0.73250467 -1.0647684 0.33831245 1.6455736 0.37240136 0.1569419 -1.0958358 -0.23153178
como -0.09692715 -0.38608783 0.07785133 0.78748405 -0.03762177 0.59593505 0.23888342 0.29273203 -0.57610875 -0.050403453 -0.88240975 -0.7887002 0.6273279 1.3299915 0.47496396 -0.014022074 1.0942804 0.1895875 -0.3174462 -0.460511 0.94757235 -0.69251776 0.7349054 -0.24445808 -0.28743622 -0.6956567 -0.59665453 0.36905274 -0.18940799 0.564726 -0.07394281 -0.78510207 0.4442844 -1.2849755 -0.43302563 1.8224863 0.5851736 0.5964193 -0.39922893 0.79422385 0.07954146 1.0581322 -0.32673398 0.36226717 0.22560892 0.16031285 0.28939444 0.0443894 0.36091825 0.075457826 -0.39920172 -0.31213763 0.38834798 0.3171664 0.29909086 0.35705337 0.5490757 -0.41570842 0.46285707 0.95163864 -0.15046431 -0.778521 -1.0683271 -0.43695933 -0.6881444 0.30056995 -0.3669818 0.6596981 -0.07681749 1.8961844 -0.4560158 -0.88982874 0.32671937 -0.213136 0.17939845 -0.076015085 -0.611036 0.058679592 -0.6084904 0.104221605 -0.82527447 -1.1104971 -0.29569852 0.2033652 -1.228707 -1.3324184 0.34905216 -0.87190735 -0.012247511 -0.25015742 -1.2149943 -0.30799428 0.32324758 -0.92053497 -0.46080834 -1.2357887 0.2619484 -0.32256794 0.8702156 0.86975384
quando -0.3820819 -0.41617137 0.22113602 -0.24835625 0.551424 1.2487836 0.14046417 0.013331467 -1.085672 -0.23855218 -0.5198918 -0.07996585 -0.19037749 0.8767052 0.77584666 -0.27833286 -0.2298902 0.016524155 0.08530586 -1.0792778 -0.96240157 -0.2216314 1.1334739 0.09168941 -0.46680203 -0.39998886 0.6174148 -0.30047297 0.19123302 -0.32647654 0.36121917 -0.7797088 -0.025860345 -0.0027046453 1.123052 0.64832914 -0.12023934 0.7335727 0.3352514 0.5415465 0.03836373 -0.82069343 -0.6346847 0.29530582 1.1801835 0.061176974 -1.0431015 0.39799786 -0.06763203 -0.5360042 0.31384537 -0.10108914 -0.22327301 0.24593459 -0.10370728 0.3318786 0.61561334 0.26270303 -0.0783851 0.4430637 0.068472296 -0.26082262 0.34543884 -0.5027512 -0.15065141 0.14444694 0.53987646 0.19191803 -0.24205369 1.0282824 0.56282413 -0.19693792 -0.34811434 -0.06495208 0.18915114 -0.5771963 0.23227085 -0.16397968 0.3102043 0.043425616 -1.249715 -0.6227939 -0.5962442 0.17279744 0.20026086 -0.27463478 0.08951178 1.1906924 0.013346445 -0.16243216 -0.30295324 0.3409208 0.6934787 -0.23225684 -0.46023807 0.18572761 0.6598954 -0.24395059 0.1713167 -0.28339332
eu -0.790151 0.6044145 1.2642295 0.7834909 0.48223993 -1.6262959 1.1410669 -0.10012795 -0.12856582 0.07731564 -1.3101035 -1.6245315 1.7815244 -0.30260885 0.78459334 -0.089195296 0.11664157 -0.73565376 1.265331 -0.30714792 1.4640969 0.6360914 -1.1016412 0.51712227 -0.46477586 1.150016 -0.8543234 0.45225954 -0.19659002 -0.16020067 -0.2344467 0.67655176 -1.1262697 -0.31353256 0.07974624 1.1369857 1.6868994 1.0213255 -0.31484526 1.043816 0.24388725 -0.5661267 -0.5415672 0.44045055 -0.14520667 -0.2292043 -0.3332788 -1.0083845 0.6544915 -1.1713074 0.27167082 -1.1921167 0.06976132 0.49654284 -0.9539226 2.1986322 0.97238004 0.80671245 -1.2869743 2.0898616 0.6074386 -0.67191243 -1.4278041 -0.66099244 0.204015 0.009807311 0.07022127 -0.25991783 1.0207508 -0.18477437 -0.839556 -0.7426698 0.5902776 -0.5021178 0.4370561 0.68184394 -0.98058075 0.49428654 -0.41931704 0.03755335 -0.9695277 0.07406324 -1.2343371 0.24060576 -0.82577443 -0.76165164 0.42837885 1.1477714 1.045604 -0.8659903 0.34065774 0.31323656 -0.18961412 -0.17574811 0.22816399 0.10955282 0.7788897 -0.1317807 -0.52630734 -0.0038613311
era 0.33456025 -0.23454404 0.9564553 0.11599202 -0.18025592 -0.1173307 0.12958884 -0.9029199 0.929668 -0.9694997 0.05304489 -0.3352938 1.0057362 1.967726 -1.0088729 0.27006385 1.7500677 0.36364034 1.4196923 -0.39655867 1.8037505 0.6963521 0.41757128 -1.5339937 -0.065010116 -0.6598589 -0.5866896 0.3651905 0.7215418 1.2340616 0.027185794 0.8032258 0.9463565 0.12218231 0.08315503 -0.5617231 -0.8594907 -1.1830506 0.88028413 -0.29445308 0.29971454 -0.35908136 1.4967467 0.5062948 -0.38456607 0.06553926 -0.37242663 -0.05021376 0.14459811 -0.51633924 0.7245666 1.7720759 -0.19441518 -0.76818883 -0.7633999 2.1546054 -0.46627468 0.5228152 0.048650283 0.119693615 0.3943132 1.3974826 0.21919723 0.86868525 0.8274058 0.17307378 -0.031757914 0.6486132 -0.21024898 0.097410485 0.6099168 0.2636284 -0.0873689 -1.25879 2.4214065 0.18989855 0.907382 -0.5519025 1.4414341 0.40325055 0.23493275 0.48338538 0.057917047 0.6810988 -0.0955593 -0.9922236 0.23418827 0.07655068 0.9379166 1.2261091 1.5846994 0.5514918 -0.87817544 -2.042378 -0.065619685 0.17078425 0.87350535 0.24845073 0.059129395 0.739648
à 2.0810509 -1.2108991 -0.33462355 -0.3973789 0.56680125 1.6764272 -1.0993623 1.6526617 0.46850243 -0.26101553 0.7613775 1.8639249 -0.23731652 -0.49434447 -0.4349727 1.3757591 -0.69107914 0.75461245 -0.10800163 -0.8856679 -1.1519442 -0.116046146 2.1913276 -0.8527707 1.2677976 0.14258894 1.0697501 1.356714 -0.8543499 1.8178415 0.47183096 -2.1380205 1.0183524 -1.0051861 1.3944993 -0.5886289 -1.0198255 -1.4750439 0.6093296 -0.83375525 0.76555234 -3.0627275 0.724647 -1.8919238 0.67266953 -0.98970085 -0.20337209 -0.36646724 -1.0188203 0.66641647 -0.6144704 -0.81892323 -1.1354141 1.1446304 0.467523 -0.53615785 0.22001071 -0.08161613 -2.5095625 1.2073467 -0.4856919 0.8925689 1.9362861 1.5179708 -0.42394596 1.2328292 0.6387708 1.2851297 -0.9753609 1.503421 0.47936657 1.0763179 0.8451815 -1.0373989 0.059424665 -1.3539647 -0.6819456 -0.06660364 0.010020544 -0.60214424 1.3791176 -2.131065 -1.9789937 0.51793253 -0.6011353 0.3834784 -0.36948413 0.57581145 -0.4506691 1.0878764 -0.61940336 -0.207467 2.3269904 0.050218623 -1.1313447 1.8234373 0.7917621 0.06287502 0.6855852 -1.3014299
ao -0.4391757 1.0512308 -0.89274377 -0.47767997 -0.7147963 -0.98252475 1.8929957 0.50211143 -0.9151917 -1.5885501 0.34226164 1.1458043 -1.6294351 0.4904419 1.2534446 0.7448756 0.2484663 0.08015257 -0.0136413835 -0.9544105 -1.304414 1.055441 -0.18675783 1.4280475 1.6214349 -1.5637497 1.7765611 -1.286199 0.5135939 1.133447 0.83394796 -1.3057075 0.024758272 -1.2227027 0.23535489 0.83050984 -1.9407979 -0.6709415 1.4200721 0.18387857 -0.39855814 -1.3100339 0.6224219 -0.78901064 1.3991046 -0.5591639 -1.1316949 -0.5146033 -1.1544 0.25519845 -0.78318703 0.7856388 -1.786101 -0.6419454 1.205655 2.218273 -0.38191313 -0.8753316 0.22673182 1.2386758 -0.84194976 -0.21636586 0.30897015 0.7296238 0.28077373 0.5942099 0.21581158 0.63483393 0.11433724 0.02858669 1.4122955 0.057478562 -1.4270355 0.7301919 1.429794 -1.3216933 0.50773424 -0.6227718 0.10479265 -0.11793665 0.6414766 -0.6733517 0.31082606 0.38320878 1.150052 1.1203599 0.5485812 0.7424913 1.5838448 0.95984316 0.0106080575 -0.08874212 1.3316079 -0.08771539 -0.355812 0.67553085 1.3594936 -1.164532 1.1648989 0.23395889
muito 0.19247188 -0.39587113 -0.15322796 1.0323346 -0.8062693 -0.95979005 -0.8290788 1.4574562 1.458338 0.4725941 -0.17903946 -0.5268738 1.7907095 0.35142672 1.0387021 0.1323722 0.3184803 -0.06489678 0.5892447 -1.0508405 0.9099212 0.011644922 -1.2932097 0.06229689 -1.4887536 -0.90940183 0.11315043 -0.6530202 0.34067154 0.9462147 -0.003643163 0.16645549 -0.032895934 -0.31595474 -0.5762623 0.8150208 -1.07348 -0.60213006 0.35139415 -0.53311837 1.9737444 0.629808 0.5968412 -0.57552886 0.8537338 0.94448924 0.5075073 0.19154558 0.5740679 0.29121527 -1.1649367 -0.41183832 0.63257384 -0.59498477 0.41434202 0.46193063 -0.27225474 0.4863917 0.0709388 -1.9340308 0.9225827 -0.3973755 -0.2623515 -0.46991345 -0.17253192 1.051111 -0.578995 0.8175742 0.3231781 0.39283565 1.6380738 -0.2869809 1.7451394 0.83292073 1.5363655 1.7367787 -0.32123116 -0.5067637 0.5471754 2.1341553 -0.44959345 0.506557 -0.008971282 0.036685586 0.13619766 -0.407542 -0.023083739 0.536057 1.2440511 0.64877176 0.39700612 -0.39563677 0.94050205 -0.61439717 -0.020884095 0.06383914 -0.3742503 0.19528908 -0.32196826 -0.15405323
foi 1.3779585 -0.4840622 0.15435681 -0.34528497 -0.16923389 -0.84338593 0.72639287 -0.54684407 -0.46318215 -1.8536023 0.8494923 -0.29312575 0.14347136 1.916434 -0.029593235 0.45064047 -0.2623267 1.3291327 1.1927055 0.43274438 0.5266859 0.33591765 0.3458348 0.1173605 0.08480817 -0.026258651 -0.04087891 0.36391187 -0.34854773 1.069786 0.7384898 0.91939855 -0.9120415 -1.3634675 -0.097686276 -0.7478668 -0.018627448 0.12315769 -0.29243293 -0.50143015 -0.04671467 -1.033796 0.61672825 0.42496958 -0.3230719 0.5073821 -0.60794365 -0.7576388 1.3241743 -1.2379436 0.613561 0.93376905 0.32212606 -0.79181904 0.2456192 0.40148187 -0.1788186 0.51882076 -0.60484487 1.2176422 0.059678737 0.72180074 1.758657 -0.042748608 0.27246776 -0.017448712 1.0230563 -0.8616366 -1.0087602 0.35567272 0.95144784 -0.146427 -0.4625729 -0.4857563 1.2392938 -0.33495608 0.31856245 0.16640589 0.10908099 0.2993598 -0.090842724 0.17972495 -0.99998873 0.26397723 -1.4910846 -0.34894404 0.09162947 0.7263495 0.64729494 -0.07187726 1.0167266 1.3728613 0.04280919 -1.1410433 -0.56239706 0.10839647 0.5472758 0.0013045551 -0.5470697 0.18925327
hagrid -0.3361522 0.6295204 -0.565627 0.20284979 0.66593564 -0.29562303 0.37608021 1.3548702 0.11028899 0.52137893 1.0316269 -1.6386734 0.48386484 -0.3470396 1.0321099 -0.2025229 -0.3349549 -0.1881235 0.4568564 -0.29331794 -1.0029478 0.079850845 0.38395074 0.90440094 -0.31803137 -0.46677515 0.10694393 -0.23000863 -0.29528043 -1.055096 0.4156687 -0.7299665 -0.12376834 0.12425896 -0.10355111 0.51697564 0.88385105 1.0111152 -1.1898321 0.035916634 -0.08247363 0.4712252 -0.57159406 -0.26992866 -0.16988835 -0.5634192 0.42513064 0.33095643 0.85862434 0.42555374 -0.36415887 -0.20985912 -0.10474613 0.5709892 -0.1675852 0.5577846 0.7833312 -0.5648656 -0.48701036 0.057148155 0.3280482 -0.33408463 0.58133525 -0.26480728 -0.2227894 0.20241745 0.183374 0.12416087 -0.15234289 0.45527062 0.4617407 -0.26119345 0.3056586 0.81456226 -0.109868936 0.7712381 -0.6389857 -0.14711767 -0.7012651 0.23342754 -0.6835061 -0.31866115 -0.7707632 0.01639305 -1.1368105 -0.33388484 -0.312726 1.3592619 0.21638711 0.01328596 -0.3807485 0.07225711 0.13681696 0.89885014 0.13699907 0.29547355 0.15067625 1.0143625 -0.076495446 -0.7456766
está 1.4877053 -2.1524584 -0.045273107 -0.06881908 0.10429561 -1.856381 0.7770486 0.46675593 0.22282186 -0.7642853 -0.104759455 -1.2687601 1.0858675 0.9168902 0.75456536 0.6203423 -0.7777445 1.3939686 1.724547 1.2386237 -1.2441133 0.7545852 -0.4626752 0.35556298 1.3303921 1.799735 -1.2271632 -0.89110094 -0.9771961 0.13650887 0.3376874 0.011744922 -0.20178527 -3.7241147 -1.5260382 -1.0022196 -1.986965 -0.638272 -0.2525668 -1.6547183 0.5467072 -0.4141152 -0.22152945 1.9438398 0.62206554 -0.39216632 0.14990042 -0.9319275 1.7383683 0.20012596 0.24382927 0.15173247 1.3455046 -1.3601338 0.88844013 -0.15898195 -0.74803984 1.291139 0.006784585 -0.96140814 -0.08221387 0.4584194 1.1857488 0.068919785 0.67896354 0.37653708 0.6571526 -1.6966845 -1.0899498 -0.7535587 -0.5900529 1.0526614 0.8953671 -1.4811724 1.6446437 0.0065739416 -1.3669298 1.0834433 -2.0564294 1.8322036 -0.20733847 1.1609032 -0.5059886 -1.1815395 -0.47921413 0.041575465 2.200894 0.31937936 0.47861087 -0.94334483 0.8049515 1.6235709 -0.6566938 0.733071 0.272729 1.1896279 -0.97807336 0.8403565 -2.0947537 0.21586937
dos -0.4934635 0.40771678 -0.40224802 0.9950797 -0.06337277 0.34526148 -0.3859139 1.2781856 0.57030255 0.22639586 0.20375949 -0.8519654 -2.3244545 0.16762853 -1.033751 -0.34621373 -0.72620463 0.5820508 0.17975703 0.008947024 0.65575016 -1.8195184 0.9158178 -0.25751927 1.0625534 0.22217356 0.53695315 -0.5616258 0.9787113 1.8861485 0.07959338 0.9849247 1.7897335 -0.9478559 -0.5318891 -0.7693808 -0.38341838 -0.2673626 0.333591 -1.6568258 -0.03395404 0.87985307 0.53863853 0.2597421 0.56403893 -0.14019673 1.8307954 -0.6334123 0.7903313 1.4931276 0.850133 -0.18858556 2.4255986 0.094814464 -2.5284672 0.18389013 0.80775523 1.1888609 -0.12356879 -0.11274883 0.104275286 0.28419358 -0.52978563 0.37724435 -0.9594433 -0.32700372 0.6892106 2.4463105 -1.4453913 2.1140547 0.249909 1.3591866 0.81813115 0.654597 -1.1803466 0.7943171 0.91063035 1.9483973 1.2605749 -0.78915817 0.18658835 -0.727167 0.29009956 -2.1697814 1.3961713 -0.19889084 0.9679196 -2.6030784 0.42722067 0.5861287 1.3111461 -2.251936 -2.1353028 1.7664195 -1.1367977 0.750206 -0.63530344 -1.2419744 -2.8350387 1.726898
coisa -0.4166271 2.1772738 -1.4414477 -2.0090556 -1.2187642 -1.4197147 -1.1680079 -2.2504745 -2.4563327 0.1718769 2.074527 -2.4512908 0.33152118 2.5379176 0.75407845 -1.0565093 2.7178347 -0.91313684 1.1758484 1.2676455 1.5142362 1.8430353 3.0884163 0.73567235 -1.8483169 1.8312387 -1.7812753 -0.96757644 0.4143923 -2.4258597 -1.0730085 -1.386642 1.2416366 -0.1911986 1.0949286 1.8410743 -0.4816636 1.3477399 -1.8757559 -0.48407415 -0.9246761 -0.08903797 -0.3472712 1.0865881 -1.2127521 0.38959348 1.7267501 -1.2105526 0.15151395 -0.47987732 -0.9255302 1.7568724 1.2812232 2.0934048 2.9640672 -1.325396 0.48937696 -0.80420035 -2.4709525 -1.2168157 0.24783963 0.062241737 -1.9139752 1.6075218 0.024108343 1.2533469 -0.2726547 -1.9929085 -1.7073566 2.1720955 0.24960709 -1.8645223 0.47928542 0.106589235 0.009090647 1.6742917 -0.87661755 1.4110583 -1.6294863 -1.9476299 -2.2920213 -0.10514591 -1.2467568 0.8967496 -0.09689736 0.65196073 1.0347135 1.4506371 0.64403933 -0.09045278 -0.6809215 0.6191182 -0.5439778 -0.9427103 1.0178645 -0.1205975 -1.1727918 0.5799989 0.1404634 -0.9931086
me 0.54171747 -0.08485292 1.0072743 -0.41684508 0.3457632 -1.5327528 1.9260329 -0.29905108 -0.61692107 0.35332367 -0.33490518 -1.3868955 1.2119769 -0.40248063 1.2806708 -0.36963144 -1.0344403 0.09338433 1.7809618 0.049526595 0.39161596 0.2396384 -0.31143376 0.27100533 0.10003869 1.4395888 -0.061599772 0.3676556 0.3717323 -0.34215114 0.41561216 0.7690931 -1.362116 -0.56538993 0.07544314 -0.08198109 0.8449901 1.2457484 -0.14985768 -0.066186294 0.07142866 0.06285416 -0.124657065 -0.40461057 -0.21808138 -0.55589014 -0.6024998 -0.57544565 1.831233 -0.89721614 0.54473084 -0.630713 0.7171987 -0.2686492 0.1739654 1.3284891 0.0129991565 1.0106356 -1.4527233 1.2072778 0.26185217 -0.41242346 -0.61726105 0.5671923 0.22757602 0.32741082 -0.20989545 -0.6644704 0.14696261 0.34162232 -0.89143276 -0.4116158 0.9189832 -1.0886647 0.4884359 0.02209763 -1.5033768 -0.09236557 -0.8315679 0.12133506 -1.4212574 -0.24231634 -2.3278613 0.74890393 0.1281515 -0.6000665 0.17149417 1.841048 1.095704 -1.5098767 0.58631474 0.45304883 0.030372892 -0.19882654 0.5857181 0.32249695 1.118873 -0.6605423 0.22435923 -2.1358738
hermione -0.72173774 1.2664417 -0.5126366 0.52950156 0.88673985 -0.5625169 0.2083843 1.2686732 -1.1158754 -0.5228821 -0.3196646 -0.69430333 0.23831129 0.88739914 0.22393201 -0.7818335 -0.44238374 0.30545154 -0.07928064 0.021363532 -1.4684271 0.23653828 -0.17468444 0.30252448 0.16589442 -0.67025936 0.42503598 0.38753897 -0.85920054 -1.3723292 0.49270773 -0.8873307 -0.49230087 -0.96375424 0.5516496 0.92057484 -0.012945553 0.6232551 -0.10550591 0.25534254 -0.048990604 0.35034776 -1.0070461 -1.5080453 -0.1118908 -0.3369155 0.318241 -0.9330976 -0.22144088 0.00609938 0.73810226 -1.0848664 0.06348503 0.5266635 -0.16666465 0.16713497 0.28644043 -0.98588055 -1.1715884 0.10367497 0.6231492 -0.14478168 1.2471648 -1.30597 -0.40777642 -0.48966405 0.2590184 -1.0036666 -0.6429631 -0.36865366 0.14286798 -0.23760006 -0.19112334 1.334689 0.73428565 0.1763468 -0.38239616 0.32503074 -0.5370802 0.22471364 0.097363345 -0.0054530543 -0.5208235 -0.45983177 -0.50001836 -0.7929935 0.19199777 1.2199097 -0.21910414 1.3848017 1.2838887 0.861941 0.47766072 1.0048016 0.07239417 0.09903763 0.056680277 -0.08428422 0.21680118 -1.1807122
sua 1.1958128 -1.711595 -0.7875099 -0.8670909 0.9838835 -0.2618455 -0.37716886 1.7003163 0.07658717 0.70882654 1.9205303 -0.36803487 0.4705871 -0.631626 -0.605342 -0.48738366 0.85372317 1.640194 -0.20342167 0.7792991 -0.6312772 -1.661771 -0.42813483 -1.2494372 0.4987264 0.38591245 1.38451 0.9757834 0.5368844 0.14707446 0.7832545 -1.3695223 0.56118864 -0.93451864 1.2254379 -0.6422714 0.19227484 -1.4175574 -0.8232895 -0.07898559 0.6645116 0.29202336 -0.24420018 -0.96413624 -0.13734949 -1.3734952 -0.07383078 0.27292234 -0.9844764 0.4806284 -0.40091643 -0.23582247 0.002289833 1.308683 -0.6021604 0.3585828 -0.78108066 -0.9517502 -0.6316648 0.48658934 0.7927421 0.7615488 1.204175 0.4851358 -0.33101135 2.2808752 -0.18329352 0.98670274 -0.15985762 0.7404288 0.3002534 0.87702507 0.574569 -1.1617447 0.34647077 -0.15211225 0.9390549 -0.29820365 -0.47251046 -0.7235399 -1.0216739 -0.60541487 -1.3278397 0.9042243 -2.7777307 -0.57117426 -0.28627136 -2.311058 -1.1097021 -0.8559312 -0.4987549 -0.07212411 -0.48338583 1.1865414 -0.33043447 0.001269889 -0.23672438 0.8615492 0.12210607 -0.16653982
seu -1.4701257 -1.0142703 -1.2098933 -0.7348666 -0.57303566 -1.729951 0.39496464 0.23563217 -0.15423198 -1.1068033 1.612252 -1.2451364 0.42425802 1.0034157 0.71533006 1.2226747 1.4444572 -0.19995137 1.541253 -1.4997555 -0.42496282 -0.16822667 -0.048601024 -0.06817443 0.2869437 -0.6458639 -0.018787188 -0.180519 0.48534194 -0.05761959 -0.7707543 -0.39418355 0.64563847 -0.8168263 0.02322362 0.06553815 0.28681 -0.51391715 -0.78101623 0.42006162 0.21726471 0.8378253 -0.91817933 1.0437908 0.01426527 -0.17655978 -0.60525733 1.248064 -0.5984539 0.85482913 0.49475765 -0.38933143 -0.41414934 0.934983 -0.13871697 2.3538501 0.607398 -1.4504243 1.8060232 1.8870107 0.37503076 0.209383 0.16182339 1.1853167 -1.209185 0.1439805 -1.3748854 0.5481072 1.3191459 -1.3444544 1.2032256 -0.17051984 0.69176185 0.5589248 -1.1374176 -1.3341252 0.07847265 -0.996218 -0.7921388 -2.04017 0.0048000477 0.49622846 0.970757 0.8783059 0.53351575 1.4672613 1.0725017 0.24234831 1.0791994 1.1555817 -0.72411394 1.7254549 -1.4485288 1.0560127 0.8944794 0.116838105 -1.063917 0.056708846 0.5385925 1.3972937
eles 0.4224386 0.8552272 -0.9808822 0.2888963 0.15148957 -0.11368581 0.18812539 1.3240525 0.09812739 -0.068989016 -0.24532011 0.7825547 -0.74063677 -0.86100686 -0.5790846 0.07633331 -0.16511051 -0.7918679 0.66007715 -0.24674758 -0.45418182 0.0866616 0.41285133 -0.30781087 0.31221795 -1.0976443 0.73580253 -0.23875742 -0.81625146 -0.24705532 -0.2893832 -0.74013585 -0.43004432 -0.15948755 -0.62284285 0.9603158 -0.26939142 -0.63394296 1.248793 -1.0289202 -0.13250777 -1.0190477 -0.60829175 -0.38051155 0.3060642 -0.6469701 1.4521478 -0.641022 0.6387482 0.12148598 -0.17977688 -1.8252996 -0.54608184 0.8111296 -0.30792937 0.22313969 0.4641005 -0.3369242 -1.1149576 0.49177617 1.1602392 0.08006548 -0.093596675 -0.574539 -0.16512862 -0.28678828 0.6167291 0.0986001 1.4020066 1.2134721 -0.289513 0.47452384 -0.52974766 0.9486013 -0.16745065 0.040453102 -0.8020583 -0.6356332 0.097762845 -0.60339385 1.7807825 -0.20333676 -0.9264031 1.1136214 0.46214992 -0.9143944 -0.1518185 0.21245994 -0.040034074 0.84777015 0.7225708 -0.06586888 -0.3759552 0.5761915 0.31961793 0.13905284 -0.26728576 -0.44072574 -0.8992788 -0.66667515
ela 0.56723017 0.7403878 -0.8541826 0.2239119 0.21085286 -1.0851433 -0.4676284 0.9291509 -1.408509 -0.14333135 0.4272649 0.018656218 0.11334842 0.542072 0.33193138 -0.052097116 -0.47501847 0.14092311 0.19209433 -0.02187747 -0.2876985 0.5621593 0.714313 0.37339368 -0.2385536 0.20085406 0.12448888 0.8299656 -0.6825976 -0.4218303 0.575926 -0.67343676 0.0480612 0.1261278 0.094709896 0.7423975 1.3241187 0.29137325 -0.6695696 0.008573575 0.1893639 0.21053572 -0.25422576 -0.6778278 -0.97869515 -0.25747603 0.5459103 -0.5437896 -0.012657007 -0.68658644 -0.26555514 -0.9300509 -0.065453336 1.2890182 0.5851951 -0.20951886 0.20739536 -0.68832296 -1.1636876 -0.047298044 0.6034755 -0.090629354 1.1182855 0.0016296543 0.9067881 0.28168112 0.5678659 -0.81403124 -0.23556957 0.79841584 -0.037467293 0.3088622 -0.02468295 0.10412253 0.32777548 0.8318804 -0.7305257 0.43624413 -0.19500394 0.16004713 0.20746003 -0.68115896 -0.52847004 0.3057939 -0.74068975 -0.71091187 -0.18090597 0.8744237 -0.13417667 0.49419084 0.53627425 0.67727137 -0.4519318 -0.02858061 -0.13986897 -0.14008349 0.16503324 0.16988139 0.64444476 -0.95806086
bem -0.72501135 -0.22911896 -1.4232751 1.051785 0.841653 -0.6662884 0.05117889 1.3555604 -0.23681872 1.0627357 -0.6152513 -0.8711066 1.2657437 -0.27528358 1.0998154 -0.19000338 -0.05926387 -0.9837509 1.2028226 -0.47841376 -0.6812173 0.29953215 -0.76348275 -0.58568907 -0.20650187 -0.7978123 -1.6074982 -1.1689066 -0.67881334 -0.0005752628 0.72336024 0.30986533 -1.1175067 -1.0625806 0.13957627 0.24387544 -0.9381424 -0.5011153 0.6943963 -1.2388401 0.00021945187 1.0057561 -1.390479 -0.17917387 0.9969346 0.7807747 -0.1838094 -0.11238348 0.7095559 0.27587447 0.79755217 -1.4019848 0.8586031 0.24433702 0.80795 -0.049226537 0.16781095 0.15057674 -0.664257 -0.41323367 -0.73268026 0.054240778 -1.2302358 0.22984208 0.81436104 -0.5171219 -0.53296924 -0.30540004 0.43172824 0.09230944 0.5356416 -0.55463165 1.1826566 0.79739356 -0.9883221 -0.36325955 0.064820334 -0.3084182 0.4107062 -0.3150152 -1.0626447 -0.105326526 -0.64458156 -0.8885311 -0.3485126 -0.71623236 0.27737263 0.46531406 0.354847 0.30484584 1.1049441 -0.17335784 -0.21433784 1.4697404 0.002815828 0.91043 -0.22315192 0.43830532 0.5273403 -0.77198404
das -0.40131032 2.0044274 0.15663238 -1.3653919 -0.17767021 -0.29107836 -1.6002207 -0.42977566 -0.8830643 1.5028911 -1.7165868 0.12730339 -2.0229294 -0.25871906 -2.557016 1.0192606 1.0275877 -0.8479103 -0.14774133 -1.1023817 1.1456511 0.49660313 1.795581 -1.2121099 1.6888782 0.47533715 -1.0954092 -1.5207306 -1.1949059 0.34065717 -0.64173645 1.8735447 1.4901931 -0.2616511 -0.8854914 1.3382272 -0.40748814 -0.64158785 -0.80327725 -1.3955547 -0.42689714 -0.6893214 -0.041598096 0.08036675 -1.5757475 -0.36508673 0.4433711 -1.9673771 -0.98451954 1.1590247 0.51310045 -0.39116478 -2.2938354 1.0034468 -0.9432233 -2.340825 1.6998546 0.4997194 -1.4317826 0.14463323 1.0909066 -0.060151145 -2.4357805 0.65777874 0.0812947 1.5072927 0.61743665 -0.8608647 -1.2569418 0.027373016 -2.1839767 -0.13270642 -0.80302864 -0.801833 0.74139583 -1.3110583 1.0082709 -0.7445882 0.71300095 0.49318796 0.85586107 0.04574596 -0.29730204 -0.48406222 0.92710775 -0.09429042 1.5851296 1.0250887 -0.987945 0.7101755 -0.7562181 -0.915057 -0.69694006 1.3619243 1.0627089 -0.2498568 -1.0202516 0.45309085 -0.34515113 2.3734038
cabeça -0.86186606 -0.095758386 0.24347189 0.13593954 1.1187135 -0.52247465 -0.14828129 0.27545625 -2.3768144 -1.1091688 0.25948337 -0.4675282 0.35590413 1.808244 0.5284731 -0.85915774 0.49957138 0.011921889 -0.68907136 -0.17446095 0.3565926 -1.255218 1.1902932 -1.000392 -0.59895915 -2.6098034 0.42953813 -0.086032614 -1.378257 -1.1093633 1.2093807 -0.9359727 0.20434058 1.1320379 0.33379424 -0.2645237 0.60302097 -0.43919772 -1.5135709 -0.20989162 0.49117228 0.30841154 -0.581148 0.71467835 -0.10409245 -0.6410822 0.4370669 0.7553372 -1.1230332 0.38673407 0.34379053 0.31192037 -0.055101953 -0.808466 0.7506036 1.8946775 -1.0844729 -0.47747403 1.2793264 -1.4164196 1.7620072 0.08843101 1.9608178 -0.6754536 -0.18052253 -0.4133557 0.73187256 1.0711111 -0.5324904 0.6629196 -0.6540244 0.1463543 0.1355457 1.0186939 0.8060885 1.6411796 -0.45422453 -0.0112941675 -1.3871427 0.66916156 0.755271 0.41141683 0.15444915 1.0480119 -1.1026976 -0.092788406 1.8203022 0.17060654 -0.1772599 0.3404004 0.21551318 0.21409841 -1.7579197 1.1538899 -0.034244806 1.729488 -0.48858142 0.7294988 -0.34555903 -0.7727297
olhos -0.8197848 -0.5032658 -0.6495722 0.8676496 -0.7917847 -0.3390333 -0.23916344 2.562336 0.036513295 -0.4773044 -0.49533436 -0.4916033 -1.7151574 1.4531643 0.8682552 -1.2482939 0.7014219 -0.072266586 -0.89287835 1.1142869 0.15477984 -0.8918553 1.7677629 -2.0160735 -0.47486803 -2.1421602 -0.1460402 -0.54379135 -0.03732853 -0.6595109 0.34630197 -0.6017417 -0.23147312 0.25722605 0.85700864 0.25401437 -0.49416512 -0.40397054 -1.7569419 0.6867589 0.35055813 1.2464378 -1.5813686 0.11595358 1.3753685 0.8163784 0.91311324 0.6224676 0.07331925 -0.0005330724 1.8961749 -0.064728804 -0.3671981 0.51906747 -0.45207894 -0.7661167 -0.58359176 -1.3744879 0.86054933 -0.3822636 0.37725705 0.25386387 1.6899756 -1.8673772 0.74306697 -0.30927962 0.034913845 1.5847305 -0.52046967 0.6687224 0.67326796 -2.15233 -0.5014016 0.9263765 -1.6319308 1.3689209 -0.0746611 -0.58933866 -0.80794007 0.2804944 -0.058344025 0.5272235 -0.54469186 0.35193345 -0.18035045 -1.5121721 2.4905725 0.86257565 -1.1919794 2.1238177 1.2927433 -0.5009493 -1.3468051 -0.890582 1.06134 1.4724501 -0.21061471 -0.20537418 -0.08044691 -0.81252736
isso 0.39794666 0.043095868 -0.6007331 0.3425205 -0.08166194 -2.3662577 -0.017203307 0.13262662 -0.6691957 -0.13804603 0.27451703 0.11660418 1.6421013 0.92345643 0.74383545 0.29626694 -0.07870052 0.16684169 0.513312 -0.9903321 0.8182586 -0.2031848 -0.3849907 0.5737488 -0.12803411 -0.17926294 -0.12483346 0.24808691 -0.017677372 -1.0316918 0.75004405 0.60527164 -0.78228796 -0.6889533 0.64235777 1.6969448 0.68147415 1.0182089 -0.35510302 0.041336067 1.0983874 -0.104521684 -1.6815655 -0.3667283 -0.35979295 0.4063665 0.51056737 -0.47519845 1.2749368 0.23639959 -0.31396884 -1.0576379 1.1382761 0.54545915 1.3036547 -0.078229606 0.020186817 0.79600006 -0.87281597 0.34467143 0.37564534 -0.6474497 -0.35629812 -1.2320471 0.010720217 0.2104719 0.7125585 -1.1672469 -0.36214647 1.3192286 -0.75496626 -0.7004607 0.46875066 0.30759734 0.44581607 -0.041157644 -1.0289992 -0.43808296 -0.53441983 0.2563477 -0.4790604 0.044371314 -1.3210342 0.50937414 -0.9532287 -0.7554291 0.044063795 -0.73988056 1.1398394 -0.21825695 0.45859584 0.2822992 0.40004238 0.41502345 0.52446765 -0.37482122 -0.22285375 -0.15878375 0.09910625 -0.8879416
até 0.641767 -0.39290836 0.33652735 0.26083562 0.31750524 1.2572982 0.4701034 0.3396625 -0.32782558 -0.94102335 -0.7363197 0.44353956 -0.67982197 0.9333631 -0.18567976 0.64400816 -0.49476194 -0.18456198 0.026533892 -1.0131267 0.33117443 -0.19411846 0.9680933 -0.28007784 0.57025373 0.14269768 0.09255196 -0.9102745 -0.082145676 0.5595634 0.5163604 -0.48819613 0.7857317 -0.7750232 0.4542982 0.06776429 -1.1724861 -0.33991206 1.311335 -0.41613272 -0.10543627 -0.7532591 0.23441389 0.6814408 0.5228337 -0.4570774 -0.4024964 -0.21602245 -0.36927137 -0.1984956 0.5391086 0.21236047 -0.60220057 -0.7076266 -0.53187484 0.45516762 0.5080444 0.39631218 0.0025081267 0.2960278 -0.34086215 0.10137727 0.5995219 0.4777335 -0.47558957 0.16345179 0.7085158 0.6847484 0.15434587 0.7931335 -0.24260916 0.35227042 -0.18065597 -0.69984776 0.28980058 -0.83150774 0.8661376 0.01328408 0.81102026 0.8548222 0.06386043 -0.4606128 0.23997447 -0.11596648 0.9060587 0.1957412 0.03446104 0.022078037 0.0071646497 0.20987807 0.36116526 -0.58125675 0.5652434 -0.50747275 -1.0438483 0.50639874 0.43049532 -0.4258438 -0.24677649 0.3689674
ter 0.64909726 -0.059737906 -0.8022562 1.8006611 -2.7854362 -0.2988543 0.80225444 0.22625303 -0.493982 1.756155 -0.7823754 -1.6667981 2.2880652 -0.75738376 -0.13007389 -0.43625873 1.0735397 0.053233035 0.4221492 0.162906 2.9748366 1.5263866 0.64338684 -0.28969112 -0.9056578 0.85901654 -0.3039864 0.42852187 0.35886016 0.6160006 -1.0665653 0.92730886 0.62621 -0.1660058 0.75872815 0.68299717 -1.3061652 -0.44719276 0.33967173 -0.35716978 -1.0404788 -1.1193092 0.210222 0.44724715 -0.45199263 1.0074143 -1.2938789 0.3357233 0.780092 -2.1941595 0.9385128 0.13151328 -0.619495 -1.0584931 2.1909242 1.6630224 0.2825454 -0.66309124 -0.66769373 0.5399174 -0.15216427 -0.43760267 -2.09748 1.5926774 -1.7117566 0.92165107 -1.6435117 1.0989723 1.0224146 1.2240771 -1.3688445 -2.1727333 0.22458343 -0.07442431 0.13142328 0.6869501 1.3350621 -2.6635902 -0.9839266 -1.5143814 -0.17869091 1.968646 -1.5215491 -0.054084644 -0.38979495 -0.5913782 -0.31320328 -0.38243592 1.0564249 -1.5665772 1.3223615 -1.01709 -1.804244 0.930238 1.3227569 0.15576033 0.30167723 0.45588437 -0.42530355 -0.3114953
dumbledore 0.44723552 0.9743329 0.3712865 1.0258982 1.3909484 -1.6842387 0.06750356 1.5786935 -0.27094898 -1.167882 0.583104 -0.8844792 0.18186311 0.5969379 1.9478112 -0.20312276 -0.46071783 0.2544032 0.78050554 -0.37381998 -0.05933208 0.23786388 -0.3050325 0.54662937 -0.6759255 -0.21043135 0.08319965 0.91885805 0.445266 0.13996284 0.4529028 0.6714652 -0.6896344 -0.08197354 0.5045962 0.7971366 1.2079337 1.1679642 -0.8561045 0.054434795 0.47927275 0.7222487 -1.077122 -1.1218824 -0.6882992 0.108695626 -0.43100303 0.64541996 0.62898844 -0.30533776 0.36246988 -0.5961042 0.12688522 1.5283498 0.0048588295 1.7685856 -0.09734948 -0.69358253 1.0034369 0.8172439 0.58564824 0.03059193 0.3840844 -0.860133 0.24558266 -0.4265504 0.33771417 0.03287182 -0.17988293 0.55990803 0.9907362 -0.25503886 0.022269346 0.608205 -0.039286226 0.68642503 -0.55710727 -0.049338404 -0.15218888 -0.100955054 -0.11094978 0.3183429 -0.644227 0.41224974 -1.3871304 0.29679596 -0.9570594 0.88646287 0.9661234 -0.29018092 0.47470602 -0.22377525 -0.07091319 -0.01238378 0.8124374 0.8036567 0.16349675 0.025412776 0.5692059 -0.9527691
tinha 0.24831888 -0.98474514 0.027220627 0.57100016 -0.50299555 0.5084178 -0.36381084 -0.28091928 0.6661354 0.2767288 0.08858461 -0.9260098 0.8124966 0.8161382 -1.0877078 -0.509756 1.8208405 -0.33993855 0.02254529 0.38619065 2.708064 0.9632848 0.7773122 -1.1005975 -0.37726104 0.39333403 -0.36239544 0.121061474 0.102114566 -0.33278176 -1.4553998 -0.22247657 0.78862965 -0.17131858 0.26568693 -0.93072724 -0.7439027 -0.847572 0.4498158 0.025279362 -0.57814497 0.98556095 0.14245772 1.2117728 -0.5067712 -0.17906001 -0.2944672 0.4821627 0.6874785 -0.65193516 0.71666086 0.93308485 0.25792977 -0.26766604 -0.18736126 1.3377117 -0.043523543 -0.2757605 -0.51182675 -0.04544106 -0.0125982845 0.34955505 -1.0855885 0.73092157 -0.27237102 0.7421954 -0.90826327 1.5022411 -0.060486946 0.108171225 0.2542276 0.32009953 0.27217174 -1.5290736 1.3064623 0.55377775 1.4421932 -0.99076736 0.17040947 -0.4387257 -0.5000928 0.8810518 -0.17895816 0.6446591 -0.49678695 -1.492803 -0.0017805666 -0.10766338 0.47615543 0.4180035 0.99750924 -0.11423112 -0.51135576 -1.0873321 0.6023726 0.9147232 0.23940074 0.19285783 0.27292892 0.11628485
vez -1.6491768 1.9035351 -0.95249945 -0.7436919 -0.4039774 -0.81556976 0.03342437 -0.36242205 -3.2604651 0.39460883 0.8768029 -1.1524392 -0.022681123 0.030450448 -0.03943757 -1.0584979 0.018430812 1.216483 1.2228541 0.63936377 1.1919143 -1.9051996 3.717286 -1.2740824 -1.8390015 0.9494684 -0.3858013 -2.1629295 -0.81903374 1.8050368 -0.38370425 0.0032011752 0.57453424 1.2033995 1.6180161 -2.443519 -1.0047712 0.9503366 -0.1414479 -1.343451 1.8219097 0.24150364 1.6524986 0.023934064 -1.4269352 0.22838782 1.1408728 -1.4802352 1.474917 -1.0881296 -2.0723345 0.9755193 0.19052082 -0.7894109 1.1522433 -1.2664534 1.0029037 -0.8538383 -1.399411 1.3282486 1.8245188 -0.040879127 2.0305102 2.1896446 0.03366118 1.587639 -0.35967174 -1.0945401 -0.7954019 0.19787522 -0.52785033 -1.0687516 1.319302 -0.77393764 1.0086335 0.98949444 0.33357167 0.061309036 1.7694983 -1.866511 -0.19822444 0.52027005 -0.6609503 -1.0715766 -1.7337488 -1.0120327 0.5249388 1.7665188 1.0643524 -0.34746662 -0.7850899 0.6818731 -1.5666248 -1.7771608 -0.02292802 -1.1077857 -0.1218515 -0.59343094 1.2613665 -0.58155787
perguntou 0.8952856 -0.847202 -0.40810513 -0.54324615 0.8511885 -1.5473343 0.33404425 0.4202882 -0.35561728 -1.0818353 -1.5014124 0.024137868 0.14329287 0.04728542 0.8951318 0.34838748 -0.6243857 1.2964026 0.86470574 0.32710728 0.15798193 0.51726913 -0.73034817 -0.075189136 0.020118648 1.1789936 -0.2352658 -0.9669609 -1.1502762 0.7796669 0.5250769 -0.73753524 -1.1159122 -1.1343894 0.26264584 1.2232573 -0.6584657 0.12021688 -0.8362158 -0.67082494 1.2138278 -0.33656245 -0.5701359 0.99562514 1.6945034 -0.11086118 -0.9761016 -0.96087027 -0.024168674 -1.3857931 0.6827549 0.0031625081 1.3520669 -0.94313055 0.8574662 -1.74247 0.98364747 0.40729627 0.5008416 0.9395417 -0.5158337 -0.9028357 0.32547724 -0.098840654 0.8313858 -0.2882731 1.2967436 -0.88908553 -0.979057 -0.6352237 -1.3828274 0.61938864 -0.14528841 -0.106314816 0.1598669 0.2620468 0.7297493 2.0751038 -1.1224829 0.4458366 -0.9544353 1.163172 0.99991596 0.67711276 -1.4535737 -0.13706894 1.3293103 -0.7258946 -0.17718603 -0.62833107 0.79763967 1.3388698 -0.028595109 -0.6344453 0.9971011 0.80191314 -0.86897343 0.08650393 -0.97621083 0.33174098
sem -0.582081 0.0584783 0.34445682 -0.49717233 -0.68057775 0.18965732 1.1994429 -0.48705852 -1.098521 -0.34671488 0.962849 -0.4611554 0.40236562 0.855511 0.7022907 -0.85268074 0.76470536 0.8583675 -0.27695248 -0.19754472 0.20641851 -0.93850917 -0.60264444 0.6739535 -0.112956084 -1.0363495 1.749985 -0.016403738 0.11534302 -1.5021814 -0.72039706 -0.8601562 -0.8606302 0.36048797 0.59354895 -0.019269148 -0.72908235 -0.52437925 0.78990936 -0.24958469 -0.06506362 0.6646536 0.21939524 1.4574873 0.20403993 -0.63810605 -0.99843526 0.50461185 -0.43002668 1.1129053 -0.48779863 -0.5857662 -0.6416278 -0.7102082 0.4655084 1.8134744 -1.0867957 0.39621142 -0.37414667 0.06166732 0.756678 0.5499974 -0.15564981 0.5503845 -0.29898322 0.44662446 -0.26920533 1.7558903 -0.09990965 1.1953633 0.18624407 0.88910425 -0.10259931 -0.8197327 0.8975149 0.6063628 0.87505215 -1.8629478 0.010311367 -0.17883962 0.37357318 -0.8466305 -1.5644528 0.94650143 1.2307876 0.14701326 0.031005617 -1.1991048 -0.5204377 0.8072288 0.2148279 0.0038461722 -0.43430853 1.004267 0.44585323 -0.1882563 0.68885434 -1.8359975 1.5598694 -1.5242083
então -0.0018316752 0.54000914 0.14772028 0.18577892 0.3186036 -0.19237497 0.4055907 0.26411092 -0.8420778 -0.023289282 -0.27409402 -0.5253136 0.14754827 0.44113255 0.73425376 -0.21332505 -0.208247 0.50243855 0.06541406 -0.2288465 -0.3414091 0.10029549 0.40513223 0.41471457 -0.44378626 0.09280705 0.4351848 -0.21697627 -0.3197911 0.10278494 0.054509114 -0.33852646 -0.4190547 -0.51466393 0.3369369 0.57806283 0.34136802 0.21578154 -0.37730938 0.095221214 0.30681357 0.38291237 -0.30075887 -0.20611057 0.14864701 0.23598775 -0.052414194 0.02515775 0.04279256 -0.4445839 -0.10014539 -0.6068612 -0.15112059 0.20873752 0.38935468 -0.12460766 0.61262494 -0.18605554 -0.028434483 0.4446656 0.34852704 0.015322017 0.28654155 0.0024967017 -0.065447114 -0.26520875 0.24022466 -0.13752426 -0.34015834 0.4469209 0.29531214 -0.6321514 0.37130383 0.6306226 -0.06829479 0.18128532 -0.30695632 -0.022947902 -0.7061594 -0.0385998 -0.3253528 -0.37489054 -0.71547914 -0.11134971 -0.51654315 -0.1822341 0.49085647 0.45611146 0.1746801 0.004882373 0.2021366 0.7216603 0.43138787 -0.028000081 0.705954 0.08701262 0.021179253 -0.16197239 0.35681045 -0.5886111
vai 0.55191886 -1.2975123 0.26567924 -0.8247224 0.5258957 -0.6536084 2.0234919 -0.05193457 -0.39635092 -1.0270803 -0.058331087 -1.497948 0.80074704 0.08722453 1.6969315 -0.38168597 -1.1477091 0.6375981 1.0689874 -0.13735962 1.1405243 1.0151502 -1.4114686 0.6085189 0.5348255 0.8075687 -0.55457956 -0.7382584 -0.16041408 -0.12523212 -0.37311813 0.041787058 -0.27580053 -2.551962 -0.70476973 -0.37332052 -0.15788972 0.030910702 0.7667334 -1.219502 -0.2841814 -1.2135149 0.36800405 0.2816486 0.7222089 0.88334703 -0.92948097 -1.2999073 1.2810506 -0.08960152 0.101335905 -0.7561164 0.5774929 -1.5212013 0.5951029 0.44755274 -1.21483 0.54844487 -1.3275476 0.8353456 -1.2612692 0.84047765 -0.39216322 -0.43256062 -0.6220022 0.56355166 0.5876035 0.5153097 -0.7630218 0.6022601 -0.6975537 -0.1070591 1.5865684 -2.177293 1.5355455 -0.09406429 -0.9709374 0.5973525 -0.29829305 -0.10974874 -0.53918797 0.0151841855 -1.7964394 1.1868557 -0.16681543 0.726027 -0.93549424 -0.7019123 0.5126488 -1.2706319 0.4714969 -0.29257086 1.107912 -0.2653882 -0.4977719 0.15905057 1.3047553 -0.30125344 0.49129605 -1.5686581
ser 0.23060304 -0.20735036 -0.42844152 1.3480381 -0.68719333 -1.3665853 0.06947085 0.112443656 -0.53467685 1.1599679 -0.84203064 -0.9280821 1.4749945 0.60455745 0.27793887 0.4020938 0.008046178 -0.030821094 0.9252258 -0.36862192 2.7270453 0.8133211 0.01212026 -0.75528497 -0.13962491 0.41935536 -0.8655659 0.4224055 -0.6171074 0.87607086 0.023097273 1.3222077 0.31937835 -0.03195263 0.90126693 0.29535696 -0.38770378 -0.22800113 -0.2718499 -0.122480154 -0.13768546 -1.3533226 -0.05182314 -0.14108552 -0.4074692 0.9481852 -0.29554722 -0.79972523 1.0618197 -1.1206024 1.4690937 0.10274848 -0.016225306 -0.10766249 1.5826862 1.5612335 -0.13066031 -0.680894 -0.43856442 -0.10213285 0.24206899 -0.12132974 -1.3042976 1.0169537 -0.3952736 0.506981 -0.61325896 0.75825876 1.2600052 1.7654474 -1.2770357 -1.6133093 0.91699046 -0.048829746 0.324527 0.7304926 0.30373168 -1.0021093 0.89753467 -0.5365311 -0.43815392 0.8895418 -1.4528656 -0.12132055 -0.5132487 -0.25400507 -0.3703671 0.27931166 1.1253889 -0.8190947 0.8997316 -0.97200906 -1.6634564 -0.15685351 0.030229589 0.95822746 0.71307105 1.1166136 -0.76693106 -0.4975971
lhe 0.44496718 0.19368933 0.66435117 -0.16189499 -0.25114506 -0.06989306 0.9978291 -0.1374924 0.27631405 -0.11687455 0.5941954 -1.093664 0.8981796 -0.39221993 0.82770526 -1.2847079 0.5147396 0.013378757 0.23648283 -0.43337947 1.0438397 0.585277 -0.091234446 -0.4762209 -0.28795812 0.5294821 0.2523115 1.3281845 0.81978697 -0.14188595 -0.48534268 0.2547719 0.7451573 0.7507214 1.0504338 0.90366644 1.5332842 1.0171349 -0.6974475 0.6993379 -0.45223996 -0.23050995 -0.40517545 -0.57470804 -0.32216084 -0.81043124 -0.61718285 0.89531446 0.36852103 -0.40016904 0.10348701 -0.16733074 -0.09900549 0.7457032 -0.62047106 1.4975793 0.4165969 -0.65726006 -0.22301494 0.96313 0.6322303 0.4023705 0.21633218 -0.01057583 -0.94972026 0.8820285 -0.21369818 0.89489055 -0.20378031 0.4479765 -0.41224325 0.099694744 0.6001704 -0.40771225 -0.105891876 0.79416674 -0.43045977 -0.81272614 -0.72991496 -0.33715233 -0.5328401 0.1921275 -0.9272611 1.2849872 0.029058352 -0.6211207 -0.3847936 0.470907 0.15935661 -0.12995686 0.57134825 0.54963833 -0.68772537 -0.38021982 1.0205897 0.39353204 1.356603 0.4953836 0.6157325 -1.5099272
só 0.18520577 0.21029542 0.6295306 0.1434533 0.55018246 -0.5783161 0.33105835 0.17656858 -0.08777673 0.078392625 -0.5881234 -0.73967713 1.195875 0.4496499 0.5550231 0.34613264 -0.3180315 0.5691046 0.09635455 -0.21429728 0.41573903 -0.4038417 -0.017169887 -0.30104974 -0.21748091 0.6164093 -0.56353825 0.0043482464 0.16486001 -0.18356653 0.4277506 0.6239066 -0.03904121 -0.09376966 0.62453926 0.37772667 0.65808666 0.11211934 0.10473582 0.31644273 0.82837176 0.13098793 -0.5549487 -0.20076741 0.21198778 0.28407565 0.054711305 -0.87576103 0.6906174 -0.2642487 -0.18221118 -0.6577798 0.27169532 -0.08989718 -0.30987474 0.18551967 0.3837595 0.23132578 -0.98857635 0.2648818 0.26054364 0.32650524 -0.9340477 0.2882158 0.095076814 0.5780797 0.5546982 -0.13806207 -0.47249576 0.65371203 -1.0247134 -0.61351717 1.009721 -0.31354576 0.105006225 0.36599275 -0.24603133 -0.13215141 -0.070902646 0.28345898 -1.0884697 -0.16672203 -1.0790795 -0.021821618 -0.3855795 -0.73519826 0.16697119 -0.20489982 -0.36114952 -0.7144168 0.109639786 -0.009564993 0.42383942 0.22654885 0.13877238 -0.34325966 0.78912395 0.018282749 0.06450024 -0.5609936
porta -0.66302454 1.4959042 -1.6841431 -0.118034005 0.55646306 1.4303565 0.06230377 0.41868728 -2.842129 0.17737088 0.41555548 -1.009207 -1.8213001 1.2715224 -0.33769777 -1.0025091 0.562841 0.53091717 -0.30128643 -0.10744484 -1.231639 -0.53104496 3.187915 -0.7011726 -0.2589587 -2.3481839 1.0040674 -2.2124188 -1.5712569 -0.67233366 1.1135881 -1.5792046 0.8012276 1.3164302 0.27623478 -0.5742179 -0.62192315 0.1356034 -1.0567935 -0.54744846 0.8259057 -0.89272696 0.004666892 -0.14174017 -0.33686736 0.38538283 0.35772574 -1.4090563 -0.16684215 -0.756361 -0.20067386 -0.038284093 -0.727249 0.059958328 0.613802 0.26833278 -0.40446365 -1.8329325 -1.2376051 0.38280937 1.6151501 -0.2526864 1.1228408 -0.7627616 -0.07494957 0.28315955 1.5114492 -1.0336387 -0.3657341 0.833954 0.7344977 -0.5435636 -1.27942 0.53419745 0.5632165 0.41327986 0.5298855 0.07315542 -1.1264331 1.2394222 -0.15118994 0.11548127 -0.33770815 0.8683578 -1.0799258 -0.5931336 0.6664272 1.7441857 0.8108418 0.6036451 -0.4683989 0.19767112 -1.0512041 0.59054655 -1.0787098 0.5783333 -0.06074374 -0.22106975 -0.96237147 0.14356579
lo -0.21632333 0.13362464 -0.353799 0.85007054 -0.87216777 -1.2202858 1.2048749 0.40253815 -1.2723433 0.052315205 0.18568657 -0.57201624 2.031663 -0.8158979 0.0583252 -0.16266099 -0.098024234 0.45443076 0.14991705 0.50051606 0.6319982 -1.5845175 -0.25969666 -0.4375464 0.54247624 -0.4882038 -0.46852025 0.33459964 -1.0575789 0.26258805 -0.1115535 0.6757687 -0.5969969 0.49184158 0.19103953 0.5876535 0.15513797 0.26076216 -0.38548243 -0.010436006 1.0688473 -1.0390859 0.28905183 -0.1914718 -0.8040299 -0.07691642 0.13757165 -0.9928884 0.25522074 -0.53521407 -0.07179873 -1.3276418 0.1936122 -0.5448496 -0.15680861 1.4919293 -0.53943837 0.31799826 -1.5273771 1.2551701 1.19234 -0.5459094 0.30131376 0.20089617 -0.5796284 1.2659248 -1.2294192 -0.27053604 0.38066545 0.12702355 -1.7847649 -0.7673368 0.45793483 -0.26593524 -0.40116063 -0.48397478 -1.2929405 -0.71540564 -0.62876654 -0.5347269 -0.46492004 -0.11272039 -1.813951 0.14898768 -0.5188588 -0.3579776 0.22934808 0.98457694 0.92992747 -0.6934408 -0.7496444 -0.38877994 -0.8148564 0.9068712 -0.048840467 0.081061505 0.75486064 -1.0904703 -0.14377771 -1.4765368
agora -0.29468188 0.2653899 0.12865625 0.37346405 -0.22440495 -0.46100876 0.027377754 0.30989298 -0.4451708 0.062312078 -0.33307725 -0.16962163 0.48754787 -0.13968077 -0.0189459 0.53229785 -0.601437 0.04142318 0.33649448 -0.5252809 -0.11867282 -0.1771796 0.088118754 0.14411342 -0.17798355 0.21358281 -0.42639512 -0.29645863 -0.4588739 0.3718451 -0.08642551 0.506994 -0.3535269 0.029294899 0.018111048 0.20587711 0.14166464 -0.15602823 0.26717833 -0.4650319 0.32590312 -0.5210709 -0.3580105 -0.00014702979 0.15396994 0.23566009 0.2431233 -0.640363 0.42239937 0.008363212 0.09668344 -1.1581587 -0.05395168 -0.026320962 -0.30067208 0.07708682 0.55951685 0.6220114 -0.9780839 0.19790868 0.59771955 -0.02856787 -0.18205571 -0.18275131 -0.15720625 0.006850504 0.10483916 -0.2850887 0.2731439 0.40769714 -0.28907165 -0.27613944 0.327538 0.22600521 0.56001204 -0.053833183 -0.5023641 -0.15866846 -0.24256523 0.19431026 0.15173069 0.10446593 -0.6394792 -0.34184018 -0.07961092 -0.34637398 0.15163758 0.16559483 0.39064124 -0.073880896 0.6559734 0.2854712 0.16274153 0.09941672 0.26285532 -0.25237304 0.17389406 -0.26468337 -0.54875773 -0.19044496
snape -0.30716702 1.0104691 0.5047367 1.129953 1.0735276 -0.9864552 -0.2161384 0.50048316 -0.8062734 -0.64181876 -0.13657068 -0.4834197 0.38891774 0.4819094 0.26979843 -0.16857038 -0.39459136 -0.037808854 0.322062 -0.4364415 0.22926225 -0.07887729 0.20128195 0.6343301 -0.0028248723 -0.25307253 0.06156918 -0.09159168 -0.6725682 -0.37830338 0.1880659 0.33873364 -0.41990793 -0.36220342 0.18666416 0.63602465 0.6319129 0.3316727 -0.6263591 0.31641698 0.36722025 0.51433647 -0.7778041 -0.21336085 -1.0470549 -0.4984827 -0.14741033 -0.40985557 -0.11786432 -0.053666484 0.3018965 -0.19895633 -0.28757045 0.87859213 -0.1409743 1.4362221 0.34564164 -0.661847 -0.43893868 0.71438515 0.59577173 -0.33456695 0.1461454 -0.6165221 0.00081403996 0.22228801 -0.12307644 -0.013710347 0.08651739 0.5220994 0.43623793 0.07454161 -0.26493818 0.37448987 0.42257437 0.13570675 -0.08531362 -0.12814769 0.2548539 0.24697986 -0.1477216 -0.19116956 -0.7424277 -0.6262041 -1.3206747 -0.33909765 -0.07102649 1.6489509 1.0227587 0.18923667 -0.4234069 -0.28926224 0.67914915 -0.29081178 -0.09584323 0.58398175 0.36727145 -0.2584514 0.63779724 -0.40200105
já 0.28769177 -0.233165 0.27010033 0.513994 -0.20527822 -0.38042518 -0.09886788 0.21071835 -0.44360045 0.11610315 -1.0804459 -0.40781176 0.4078773 0.533908 0.19676723 0.86395484 0.19350705 -0.11173681 0.5185475 -0.23976731 -0.12608084 0.29879692 0.0970298 -0.09440141 -0.513548 0.97336483 -0.9472633 0.043392196 0.09833809 -0.34990147 -0.26422393 -0.12758525 -0.19143768 -1.010027 0.62570673 0.99731565 0.03373941 0.1795473 0.34920427 0.33610067 0.42204437 -0.5036183 -0.8390744 0.6221558 0.82471067 0.7675632 0.06381573 -0.25525576 0.6419023 -0.42652616 0.848401 -0.53962094 0.3460741 0.44597465 -0.37097377 0.04897908 0.56332 0.7991969 -0.9028278 -0.051109366 0.17359278 0.3086532 -1.2148159 0.27247822 0.2116561 0.051218968 -0.059369527 -0.14186457 0.08632424 0.73364764 -0.08644393 -0.4786161 0.7382427 -0.37970275 0.37769923 -0.10716313 -0.4375768 -0.019520622 0.6996132 0.3267753 -0.6782124 -0.43432868 -0.70400405 -0.7939649 0.25045043 -0.55573404 0.6020463 0.16685607 -0.15346693 -0.23865569 0.36219922 0.0006659891 0.4012555 0.39810127 -0.5325517 -0.39128375 0.18600981 -0.1506921 -0.27838975 0.039412063
parecia -0.5425424 0.36106923 0.57347 -0.57012874 0.2364629 0.32692045 0.24709576 -0.93016195 0.44508666 -0.4189201 -0.17848249 -0.743791 0.07163583 0.7750573 -0.7230207 -1.1450199 0.82538325 -1.2564225 0.35907856 -0.78151506 2.180633 1.155561 -0.15356073 -0.87859803 0.02062124 -0.72534037 0.04734798 -0.120959245 -0.12364841 -0.7095673 0.23908678 -1.0595653 1.6575338 -0.56544966 -0.38110578 -0.3115526 -0.28551254 -1.5864294 0.71388596 -0.4862156 0.059053905 0.100185655 0.3377237 1.5859872 0.1270524 -0.06739197 -0.45366466 0.1426269 -0.3011585 0.37838104 0.109804735 0.9890621 0.47694874 -0.29257667 -0.62026757 1.0435753 -0.51187235 -0.784066 -0.9899693 -0.5719633 -1.5368248 2.113214 -0.82028794 -0.98033345 0.08750607 0.8820843 0.51453424 0.71149766 0.19753033 -0.49889788 -0.053771388 0.7144624 0.2068948 -0.7626081 0.78565127 1.1111982 1.0718037 -0.18492404 1.2379031 -0.16819154 -0.015663113 -0.16554207 -0.20627041 1.3226515 0.61217517 0.26917496 0.19930105 0.06335042 1.1877563 0.89656615 0.9400457 0.60280955 0.12740006 -1.403038 -0.5908102 0.033259083 0.36145583 -0.0435714 1.7924814 0.48431888
weasley -0.16499083 -0.24356085 -0.7664661 -0.037482437 0.16081385 -0.2232354 -0.07918931 -0.25999054 -1.7429236 0.4045732 -2.0053196 -0.13693197 -2.040959 -0.15703993 0.7681433 0.9223746 -0.5347233 0.4712764 -1.1607765 -0.3667844 -0.7929244 2.3296669 -0.06417658 -0.09771739 -0.36618385 0.12086891 0.04647584 0.7439055 -1.4125233 1.3034561 0.77785814 0.6482353 -2.170585 -0.41066766 0.13787046 0.60817 0.4911926 -0.3586119 -0.814825 0.01574359 -0.49712196 -1.2669469 0.00010280039 -0.6133285 1.1896079 1.5958756 0.59634024 0.9242991 -0.7336544 -1.03506 0.8496331 -1.4652206 0.56856334 0.63359565 -0.6406747 0.08485362 0.48302063 0.44659534 -0.25496426 0.9046604 0.64161444 -0.7631487 -0.30731374 -0.25980482 1.7422446 0.04100694 1.6110933 1.9159948 0.045366514 -0.13834679 2.0132067 1.1513652 1.6070898 1.4864683 -0.20675507 1.4140435 -1.5323588 0.8179089 0.4147922 -1.2983382 0.31097022 0.26235226 0.46498406 1.0818353 0.2618029 -0.017183155 0.92617506 -0.37481394 -1.015697 0.24638589 2.1895976 1.416206 -1.1953449 -1.0866628 -0.47693402 1.1972259 -0.42798507 -0.681635 0.26248395 1.2066512
pelo -0.8542025 1.2186394 -0.22563094 0.49217376 -0.9821696 0.3173763 1.0710908 0.39611122 -0.5239238 -0.5215323 -0.009171444 1.3371677 -1.649726 -0.28698784 0.45068166 0.7747385 1.3935101 -0.48763648 -0.43650088 -1.0099012 -1.6576945 0.72980136 0.065662414 0.35866717 0.20783155 -1.5312073 -0.4281874 -2.0684025 0.46240002 1.0361335 0.6015154 -0.84922093 0.93456244 -0.0277163 -0.20629816 0.93292755 -1.2163701 -1.2005036 0.5585114 -0.41364083 0.5411857 -0.5862486 0.8159837 0.8632884 1.0118619 -0.45848498 -0.85462224 0.22699249 -0.5424416 -0.04589301 0.40102738 1.0384349 -2.2063763 -0.2100462 -1.0097686 1.6103767 0.5716562 -0.1837393 0.82802093 0.29408655 -0.10858138 0.32892704 0.37799758 0.5607658 0.3398297 -0.3190408 -0.14126806 0.6786976 -0.11409986 -0.416686 0.92395216 0.30911762 -1.5141705 0.25677153 0.84195673 -0.63754106 1.1128327 -0.4113769 0.21253484 -0.049323786 0.5267605 -0.45272022 1.1322339 -0.14678872 1.0966709 0.45929605 0.10214575 0.9690424 0.7136632 0.5793624 0.33277848 0.4522882 -0.17186764 0.7688272 -0.121708654 -0.9900118 0.59793067 -0.89831233 0.46295798 1.3268499
dois 0.19928639 0.6499607 -0.40154114 0.8594936 0.08899464 -0.15325737 0.27594194 2.2538927 -0.018344853 -0.23171489 -0.682412 -0.102852054 -2.0167997 -0.34579584 0.73671025 -0.5178182 -0.32669467 -0.62049437 -0.5399788 0.0343103 0.12360246 0.062247254 1.4948444 -1.0621122 -0.7244816 -0.18963109 0.63865745 0.1399896 -0.52315336 0.051823903 0.2809144 -0.06666555 0.3061042 -0.2979563 -0.5826478 0.19800106 0.11852203 -0.36766988 0.59434104 0.0049451985 -0.30316117 -0.00035812653 -1.3574322 -0.1660924 1.0460038 0.6171314 0.8654708 -0.3540878 0.9988026 0.03841738 0.25792176 -0.97439975 -0.028796602 0.22980967 -0.51870924 -1.1757487 0.8549658 0.35709772 0.21079758 0.51314265 0.19886161 0.12259754 0.036851898 -0.359247 -0.34509346 -0.25998464 0.14880271 0.9247134 0.27779195 1.0938027 -0.33174682 -0.760004 -0.18332452 0.8535998 -0.9393611 -0.1630064 -0.41919345 -0.59592646 -0.4573935 -0.0020141872 0.41703627 0.35479867 -0.10226555 -0.20207293 1.6655807 -0.12362137 0.59187 -0.20288661 -0.4941128 0.3349681 1.280166 -0.5743733 -0.5184781 -0.2852473 0.84021807 0.6121723 -0.018046213 -1.273613 -1.0501665 -0.6809945
fazer 0.06979882 0.44731867 0.37384966 -0.14899461 0.2090735 -0.62866473 0.41965666 -0.45230862 -0.87780726 0.045281954 -0.34032527 -0.35013577 2.243703 0.49995384 0.15265179 -0.22632419 -0.18642846 0.7062276 0.6133622 -0.81268096 1.4897751 -0.48325056 -0.18975951 -0.6364812 0.27022475 0.20567217 0.013292942 0.8145753 -0.5889882 -0.66250956 -0.9275905 0.652699 0.32955897 0.3876813 1.3857437 0.8703496 0.67193276 -0.55241543 0.15341547 -0.0010755993 -0.09594658 -0.8564621 -0.19168845 0.17221878 -0.10531947 -0.22816952 0.049832698 -0.09065832 0.282017 -0.18959005 0.42356148 -0.49296263 -0.042346902 0.08527193 0.7060887 1.7712455 0.46897814 0.20082682 -0.59962416 -0.6294972 1.0712801 0.33040425 -0.5833072 0.75864154 -0.7739372 1.2547095 -0.047886834 0.2725332 -0.02065004 0.7307691 -2.169694 -0.4636068 0.8723792 0.12918274 0.028969975 0.2694418 -0.5086115 -0.77503324 -0.035472266 -0.5784395 0.008815993 1.0317593 -1.0364208 0.5015903 -0.28294674 0.07346864 0.4624045 -0.39605385 0.45108783 -0.08751317 0.5305795 0.05850245 -0.84104216 0.15722123 0.88965476 0.55690527 0.42866266 0.7179228 0.44828263 -1.2499031
potter 0.49675828 -0.38096386 -0.50100213 0.15571538 -0.16311051 -2.2011924 1.1700147 0.42593864 -0.74638844 0.2142079 -0.17793961 -1.3979996 0.9207753 0.30815786 2.070848 1.1241889 0.2627096 0.9206585 0.72741705 -0.13670813 1.1470273 1.51112 -1.023862 0.30848843 0.020993732 -0.11016419 -0.28770474 -0.14157926 -0.014483886 1.2193437 0.7536452 -0.088581465 -1.9332569 -0.29298958 -0.13447125 0.65819776 0.0018086095 0.32893828 -0.35639027 -0.09249106 0.9796305 -0.15892687 -0.5365788 -0.034784574 0.8606104 1.0852301 -0.041262172 -0.07500779 0.07596593 -1.5178965 -0.11657038 -0.63950187 0.83432645 -0.49757773 0.23479038 0.39650318 -0.18778263 0.63596654 0.08375198 1.3177432 -0.12319584 -0.07715874 -0.684028 0.25233564 1.2442297 -0.15191248 0.6814322 0.8616086 0.04348132 0.15726154 0.023616571 -1.0195271 0.89752024 0.44673803 -1.3390112 1.3451713 -0.8517653 0.541388 -0.56172 -1.3685747 -0.2747284 -0.2252291 -1.062122 0.29126322 -0.34964883 0.7997244 0.8672378 -1.5310743 -0.2156233 -0.58034635 1.1914028 -0.058063082 -1.2278272 0.12294629 -0.0036556374 0.37537348 -0.026398849 0.106482856 -0.6744359 -0.08636081
vocês 0.9980117 0.72839046 -0.10171564 0.48891887 0.6698096 -1.5178298 0.5981838 1.6535813 0.23837759 -0.017909968 -0.98146665 -0.6862112 -0.66558117 -1.2614377 0.74954015 -0.4547054 -1.5728568 -0.45370433 1.4039097 0.29903966 0.21072455 0.5377885 0.01387576 0.72017115 -0.21266945 1.0915703 -0.20312908 0.09035665 -0.17951387 0.043255836 -0.64826274 0.4738506 -0.40977928 -1.5373147 -0.87259316 0.6679066 0.895607 0.109188855 0.7135727 -0.5135391 -0.26834962 -1.0579383 -0.63657886 0.196491 0.7732032 -0.2193015 1.1351422 -1.0875865 2.819404 0.4108861 0.11489542 -1.7129047 0.5360151 0.5530899 -0.18085931 0.013062403 1.8965819 0.6388864 -0.5692866 0.5910487 -0.08417562 -0.5352408 -1.160708 -0.4428956 -0.8850047 -0.3551464 0.21050173 -0.18177223 0.247352 1.1525184 -1.7824976 0.46896738 0.4128209 0.25475168 -0.2506797 0.46564636 -1.2529284 0.55036384 -0.54461634 -0.14393018 0.6397383 0.2573404 -0.92376167 -0.14656381 0.8542798 -0.28172132 -1.086494 0.9095669 0.93211067 -0.3000577 1.1911209 -0.7627944 0.055173606 0.8202705 0.97407675 0.14974916 0.4101524 -0.5056315 -1.4367999 -1.4824706
nada -0.76574373 0.15386276 -0.20267317 0.15428787 -0.492709 -2.085487 0.15051828 0.6109326 -0.18148686 -0.46384943 0.2108787 -0.13935438 0.9612564 0.32759157 1.0662771 -0.18869866 1.1408786 -0.064677924 0.047740724 -0.20472798 1.414166 0.028897906 0.7008516 -0.9643424 -0.8954105 0.15136947 -0.47277406 0.29860097 0.11439001 -0.40448174 -0.43019444 -0.46430436 0.016137099 0.9821669 0.9654593 0.6051903 0.24736507 0.8502977 0.11405248 0.666321 0.121927306 -1.3540008 -0.32869256 -0.53823656 -0.3625928 0.14639321 1.1936388 -1.345704 0.50679094 -0.8614393 -0.7167054 -0.2996939 0.47875628 0.61165 0.18425296 0.7063945 -0.122948706 0.20433639 -1.4141444 0.3876 0.76057446 -0.49880618 0.07504299 -0.41513312 -0.011209441 1.2127182 -0.4741215 0.108907506 1.05321 1.4566256 0.21824011 -0.5709012 1.0117357 0.3592117 0.17143318 1.5571262 -1.017034 -0.42125636 0.9621112 0.09873914 -0.09833522 -0.022531886 -0.7056969 0.37162423 0.06660327 -0.81284976 0.016223898 -0.32215378 1.0991001 0.29004166 0.21736027 -0.50316143 -0.79358083 -0.922681 -0.6897852 0.074802 1.1386713 -0.3701718 -0.31891912 -0.73903674
voz -1.0463036 -0.12923384 0.04663649 -0.90023416 1.8884107 -1.1171335 -0.4784276 1.1081296 -2.2920654 0.3955821 -0.25892413 -2.0405738 -0.49737832 1.494482 1.3377564 -1.0599692 -0.63350534 0.96454906 1.5487404 0.6199478 -0.4131852 0.078967735 1.7261634 0.28850847 -1.4470116 -0.661905 0.31315097 -0.3548404 -0.8329164 -0.4562213 -0.028131822 -1.8545341 -2.130628 -0.30093592 1.1818895 -0.79065895 0.8634629 1.4928355 -1.053746 -0.28343037 -0.32823896 -0.24839878 -0.7990805 -0.4271604 -0.12897868 0.012287154 1.0182059 -0.3056005 1.958843 0.124095626 -0.1032551 1.1187477 1.7976744 -0.3248617 1.6105599 0.14642118 0.5359406 -0.41070148 0.26118904 -0.46589845 0.52695763 -1.2269483 0.6699383 -1.5078148 -0.33705962 -0.5880227 0.024995614 -0.6513894 0.2577799 0.40032223 0.6251105 -0.5696419 0.14267571 1.0328074 0.13140161 2.0921679 -0.551556 0.7991829 -1.0886871 0.36770344 -1.0073259 0.3356263 -0.47670537 0.59935194 -1.6166914 -0.41228327 1.2776053 2.4689977 1.6566061 0.23156668 0.17948844 -0.3974711 -0.7591004 1.1972399 0.5497292 1.2867342 -0.9399557 1.0717101 -0.44572213 -0.6790327
lockhart 0.10854859 0.40671682 -0.0455759 0.8413444 0.96911955 -1.1645818 -0.11237732 2.0881212 0.59973377 0.19990619 0.27616736 -0.13620345 -0.6194924 0.091529556 1.1821791 0.14973736 -0.42128983 0.45239347 -0.39081427 -0.39784577 -1.3542138 0.42036366 0.47239485 0.5148128 0.025709871 -0.42661378 0.63347346 0.09314153 -0.3969145 -0.0063267336 0.6636061 -0.103372484 -0.59271604 -0.033813953 0.114511974 0.41643614 0.74683875 0.42694977 -0.5707963 0.15620908 0.20100802 0.6237041 -0.82131743 -1.0756669 -0.2306129 -0.5321733 0.04681798 0.104873665 0.4827298 0.40294304 -0.09052621 -0.27933064 -0.281006 1.224742 -0.18491812 0.35213438 0.84452593 -0.7600823 -0.027302919 0.43258122 0.5533917 -0.90713495 0.48936716 -0.81603664 0.18085727 0.08682525 0.18029176 -0.11390222 -0.35805452 0.36229986 1.0221173 -0.36926928 -0.5373865 0.5612741 -0.16545165 1.2408038 -0.44030812 -0.11490812 -0.41638625 0.9783025 -0.044708174 0.34143513 -0.4600307 -0.37735897 -1.4311181 -0.80868685 -0.0365385 1.6680398 0.101037994 0.60788524 0.7192496 -0.33337304 0.6475085 0.38426855 1.0781355 0.89487916 -0.24166645 0.27302688 -0.28377625 -0.23937196
dizer -0.038391504 0.2841721 0.621929 -0.20144099 0.7003233 -1.7354705 0.73235536 0.014984579 -0.8272647 -0.733051 -1.2409996 -0.9114987 1.693725 0.6441548 0.76533365 0.25743666 -0.1958792 0.77569896 0.6764378 -0.12215041 1.2445605 -0.36877155 -0.37953284 -0.8829626 -0.5949336 0.979222 -0.48880157 0.012378736 -0.57511747 -0.0783885 -0.26131245 0.46685663 -0.79655784 0.51768255 1.4889547 1.1260262 0.77379316 0.41332877 -0.2542872 1.1032001 0.6866564 -1.3187131 -0.7811532 0.11333835 0.79885316 0.253923 0.23222099 -1.0849186 0.90458643 -2.082228 0.59381163 -0.88272566 0.9985842 0.7585479 0.14815128 1.6117435 0.16287988 0.7361081 -0.3910669 0.6836427 1.2641418 -0.4985345 -1.026458 0.39059773 0.7689387 0.4994999 0.7533326 -0.5534234 0.9186365 0.95265484 -1.2709922 -1.0468893 0.97271234 0.024334498 -0.9653214 0.7469082 -0.74870205 -0.48911873 0.17394373 -0.9723101 -0.90038997 1.0312415 -1.114379 0.43718088 -0.906677 -0.3848052 0.9392772 0.36949545 0.7738842 -0.50147665 0.75671446 0.178718 -0.9256507 -0.55177283 0.13261865 0.51618105 0.46486172 0.04874847 -0.17430097 -1.4372659
depois 0.47919235 0.37626317 0.026573021 -0.06198757 -0.42281193 0.72558814 0.77199215 0.55029315 -0.008185266 0.022292351 -0.4086668 -0.19804156 -0.442248 -0.24066566 -0.9521017 0.029964637 -0.6182168 -0.089320734 0.07261842 -0.6408 -0.7460723 0.52831495 0.9970089 -0.30248502 -0.7806381 -0.5127141 0.47522765 -0.6438118 -0.4419266 -0.45548433 0.9120899 0.22652791 0.59239686 -0.25449303 -0.04566724 0.10595286 -0.22126777 -0.7918181 0.65953976 -0.322664 0.2539405 -0.22999392 -0.0031244427 -0.6143778 0.20031448 0.26798853 -0.06272147 0.48748788 0.49267977 -0.035949584 0.7014153 0.5230609 -0.25927228 -0.09583509 -0.50656295 0.064006105 0.92117673 -0.00442349 -0.68458444 -0.008403792 -0.12935928 0.5076161 -0.016144082 0.69129574 -0.4727885 -0.13198793 -0.018404812 -0.10178399 -0.60969985 0.67075515 -0.37114316 -0.49600655 -0.3486145 0.0396375 0.31685004 -0.29926544 -0.07402287 -0.8249199 0.36870706 0.34529692 0.04832046 -0.20912774 -0.81401825 0.27525228 0.3050386 -0.17087698 0.17441025 0.5197433 -0.121576965 0.2303022 0.8087567 -0.16732581 0.775736 0.08166191 0.30600685 -0.47687516 -0.08592603 -0.31742218 0.21358745 -0.35626042
todos 0.3720764 0.16872382 0.014504681 1.1186851 0.32486537 0.10152539 0.10297085 1.5980605 0.14829616 -0.19896048 -0.8800002 0.121965654 -0.76022035 0.009165435 0.23239648 0.11225612 -0.7222576 -0.3736841 -0.0029702862 0.85969776 -0.054888606 -0.28734738 0.7490036 -0.66332084 0.43667296 0.1374446 -0.5508656 -0.021133121 -0.7506805 -0.7316917 -0.06606422 0.15567563 -0.2188629 -0.5770967 -0.23036835 0.4389028 0.20689026 -0.40521535 0.112537816 -0.27774736 -0.42046 -0.15340602 -1.3021744 0.11916164 0.5613481 0.15754777 0.5974885 -0.26076868 0.96076536 0.3930343 1.0363969 -1.5024643 0.3336996 0.43149552 -0.59917563 -0.05850587 0.20167993 0.47563022 -0.5456582 -0.3170895 -0.18236798 0.038762406 -0.8059978 -0.9200077 -0.3805737 -0.33405116 -0.2878755 1.1986108 0.19454385 0.782417 -0.51114964 -0.046574954 -0.030689133 0.021266233 -0.5638337 -0.21503636 -0.6717608 -0.1668328 -0.4590411 0.25919503 0.20042843 -0.03430844 -0.59088457 0.026070587 0.2889803 -0.70458555 0.50534785 -0.2483774 -0.5099016 0.4158647 1.0846846 -0.9915947 -0.1365375 0.8276075 0.33908492 0.33497083 -0.35750282 -0.86823434 -0.49952954 -0.6471503
vamos -0.29724893 0.3181938 -0.17454274 -1.3874302 0.69091594 -0.5454303 2.0163872 0.70158637 -0.09373357 -0.35840404 -0.003208271 -0.72370446 0.6450383 -0.49475822 1.7261394 -0.99516803 -1.2537645 0.79424626 0.57513416 -0.25501493 0.014946547 0.5593894 -0.91294485 0.80950063 0.60154176 0.29270807 0.050786536 -1.4828031 -0.5127853 -1.2129 -0.25761172 -0.47312146 -0.5359088 -0.81043077 0.25707573 -0.062550694 0.29408315 -0.15037332 0.898886 -1.2244985 -0.40920627 -1.006798 -0.19559312 0.12749304 0.70458245 0.057098232 -0.57112604 -0.60244 0.83010536 0.23216039 -1.0170547 -1.4580368 -0.16128388 -0.94000405 0.70764536 0.25179258 0.30168167 0.4956015 -1.0605584 0.48241782 -0.80803 0.4647896 -0.29548976 -0.61070675 -0.3705222 0.46168518 0.71787304 -0.16596957 -0.5100136 -0.02543417 -1.5840147 0.5435154 0.74365264 -0.369777 0.35214034 0.19613667 -1.0035543 0.2024534 -1.2717956 0.43437612 0.3016314 0.30038595 -0.5362986 0.95539016 0.8565153 0.8491307 -0.3248692 -0.020634318 0.53873336 -0.025181474 0.8597607 0.45279014 0.45034432 0.72370076 0.8522897 0.31669843 1.156619 -0.61502707 0.8805105 -1.950251
nunca 0.033580247 -0.595383 0.74803984 0.63319355 -0.12850004 -0.54924095 0.5367943 0.21436955 -0.5568403 -0.2513673 -0.89002454 -0.8938373 1.1687438 0.5644145 0.5403771 -0.271111 0.4737968 0.5966686 0.78349936 -0.029334102 1.3994845 -0.7252616 0.028155062 -0.64635366 -0.55964917 0.41893592 -0.29646584 0.71058387 -0.01484152 0.60593617 -0.9174883 -0.22998627 -0.4178449 -0.707633 0.7203246 0.89533967 -0.11778882 0.8142817 0.3875102 0.6959552 0.30968222 -0.56964177 -0.25580856 0.81706613 0.4220139 1.0354058 -0.3678744 -0.4360154 1.1906481 -0.59764177 0.3261877 0.1106555 0.5147956 -0.13521756 -0.1683367 0.6006768 -0.4407034 0.22399496 -0.63728803 0.8640245 0.39590496 0.19814743 -0.49392733 -0.080564186 -0.5153654 0.26627672 -0.46570846 1.2611259 0.5212889 1.0474445 -0.26428267 -0.19518186 0.935146 -0.51292074 0.5565331 0.3762004 -0.18084712 -1.0985839 1.2740468 -0.028406257 -0.86681306 -0.25369203 -1.4477885 -0.24548952 0.0825604 -1.1496819 0.24543925 -0.13916679 0.47006014 -0.38262653 -0.29557675 -0.013768333 -0.41803533 0.025533317 -0.6505099 -0.3252205 0.7735499 -0.5012581 -0.2520504 -0.33933342
havia -0.10019799 0.8421166 0.07435234 -0.14908649 -0.19256464 0.26330268 -0.02502435 0.39941913 0.87954706 -0.31046343 0.42476827 0.10991601 -0.53305024 0.39849284 -1.7954011 -0.5115159 1.5373243 -0.28813878 0.23966762 -0.61377865 1.2669691 0.124897875 1.2632964 -1.451011 -0.13409553 -0.47446075 -0.5086966 -0.6097686 -0.00823966 -0.12312726 -0.4652108 0.66755843 1.9144762 0.2612696 -0.46589446 -0.66471636 -0.93174344 -1.2249372 1.0837246 -0.8089972 -0.8281445 -0.011832534 1.1286108 0.36152273 -1.0608984 -0.7945234 0.19343671 -0.56067306 0.503283 -0.055274744 -0.19344893 1.2841911 -0.30484387 0.02070755 -0.44118267 0.6948869 0.35059202 -0.40560314 -1.1737742 -0.11095845 -0.3686 1.0155609 -0.21162903 0.76233053 -0.49705362 1.0405076 -0.75305 0.14996111 -0.10807807 0.55675006 0.31967336 0.45856872 -0.5876841 -0.38866934 1.2835242 0.02916886 1.439562 -0.7037357 0.8106736 0.3454339 0.86114496 0.4895183 0.34980553 -0.35092208 0.39740473 -0.30206832 0.63918984 0.57573396 1.3148594 1.0612124 0.7585114 -0.3156053 -0.69911766 -0.73018193 -0.31218997 0.19238867 0.74512863 -0.50553924 0.3442579 1.3752826
quem 0.11626565 0.14278008 0.586502 0.47423995 0.29556486 -2.266005 -0.60651296 -0.07029927 -1.8771677 -0.17333345 -0.48325676 -1.2487988 0.7916955 1.5015637 1.5771757 0.3204824 0.26309597 0.5082095 0.3154623 0.019734068 0.25958627 -0.10909848 -0.11267136 0.39022744 -0.17869261 1.436079 -1.2075957 1.3062407 0.15153824 0.35479766 0.096074745 0.41154006 -0.8218344 -1.5982965 0.76338136 1.5037222 0.88633984 0.6741284 -1.7539119 1.0099239 0.4986426 -0.34069064 -1.1796346 -0.37796956 -0.0759586 0.39349675 0.38883984 -0.819601 1.1987503 -0.17188814 0.6962743 0.045524016 0.14984566 0.8951648 0.184878 0.48168162 -0.6839864 -0.3052633 0.37947717 0.3387859 0.51707876 -0.8285861 -1.2023451 0.2864412 0.15075709 0.69051147 0.29511902 -1.2425095 -1.0203352 0.6081644 -0.18690489 -0.9537497 0.88727695 -0.90558165 0.36096567 0.4326958 -1.1886694 0.25765648 -0.20892014 0.06475957 -1.7066673 -0.1754236 -0.6303962 0.26178426 -1.0531892 0.13284384 0.17357798 0.006984816 0.86820924 -1.0809996 -0.7459558 0.007660254 -0.13914666 -0.16368997 -0.10086237 -1.0021068 -0.33763495 0.08436327 0.2266174 0.1502322
alguma 1.7658103 1.3409094 1.7061405 0.71678275 0.8568682 -2.173454 0.39526433 1.4656402 -1.1165403 -0.6624962 -0.054441873 0.6340533 1.7376924 0.5938855 1.0369034 -0.41446072 -0.6058249 0.05269259 0.10433325 -1.6705179 -0.11165371 0.5449472 -0.24959621 -0.97121704 -0.5667048 0.89882076 0.62684727 2.125678 0.83109075 -2.1562703 0.9712416 -0.29323295 2.3569252 -0.1733988 1.3845141 1.605036 -0.64700216 0.0010005739 -0.49415663 -0.13845955 0.80011874 0.6296136 -1.3431239 -1.5849222 -1.0987033 -1.6525708 -1.2204175 -0.027515782 -0.38412124 -1.1107358 -1.0031525 -0.37024215 -0.5413154 0.50793964 1.2072428 0.3352582 -1.6252065 0.36818638 0.12611888 -0.68937176 0.4492909 1.0933712 -0.14520974 -0.040699374 0.44897613 2.1803708 1.2142973 -2.4226449 -0.16247046 -0.88071316 -1.6018937 -0.2765409 -0.17056885 -0.2784688 0.90413535 -0.0030708686 0.03322901 -0.99558824 -0.51136434 1.2182236 0.61985767 1.188666 -0.36112693 1.1165336 0.6389071 0.81145847 1.2464958 -0.02247334 1.9121356 -1.4463196 1.13748 1.4202412 -1.0649648 0.3594559 0.8609002 -0.42866838 -0.66822 -0.8149649 1.488012 -0.7946205
aqui 0.10105423 0.46505907 -0.25072026 -0.1522276 0.018705722 -1.7138853 1.026797 0.5590139 -0.6319781 0.10622842 -0.3661966 -0.9450277 0.9302482 -0.6164766 0.7279481 0.07222637 -0.61617464 0.29754347 1.0687463 0.17284463 -0.60431325 0.6708719 -0.70295775 0.5234251 -0.00044823592 1.1221863 -0.79142326 -0.24114953 -0.6615832 -0.5351557 0.46107522 0.028698085 -0.74914813 -1.2959956 -0.32428625 0.265977 0.21475413 0.072090924 0.29962465 -0.5495205 0.57578474 -0.18887825 -0.7282194 0.19039951 0.44364265 0.02996085 0.33519733 -0.69201076 1.0622623 0.016482808 -0.42455935 -1.4317536 0.6403691 -0.028398903 0.71586215 -0.70341915 0.8890294 0.6821231 -1.0750085 0.52126116 -0.55351156 0.39161855 -0.7781915 0.2687128 0.52377075 0.019284984 0.03485462 -1.4146003 -0.13386548 0.062353656 -1.1908381 -0.25664085 0.64902014 0.046405893 -0.18741612 0.061003532 -0.49168685 0.33395448 -1.3591622 -0.16192977 -1.009018 -0.043919034 -0.8542603 -0.039546758 0.22594072 -0.31736454 0.44944936 0.15594305 0.23122174 -0.5056228 0.87649214 0.7337795 0.34651044 1.5280737 0.96113795 -0.50832343 0.14226969 -0.57856995 -0.08359268 -0.542736
seus 0.121842764 -0.085879534 -0.29915512 0.73855424 -0.00038565323 -0.123088084 -0.5085986 3.0275962 0.9869046 -0.9575892 0.6539211 -0.2616147 -1.0585548 0.1547385 0.4082838 -1.2600304 0.20702508 -1.2053849 -0.34240085 0.02630573 0.34944227 -0.8401801 0.41474384 -1.6027455 -1.158139 -0.90652305 -0.33989596 0.5999064 -0.620095 1.4436874 -0.2234744 -0.27855515 -0.0612625 -0.17733625 -1.5942276 0.4276222 -0.29426265 0.033591256 0.057699453 -0.08983036 0.048333615 -0.026435897 -0.43841416 0.2442851 0.71893036 0.51471704 1.5118753 0.28597236 0.87453204 0.41618598 -0.061350364 -0.64382744 1.3801527 0.8369416 -2.06421 -0.8453291 0.71687025 1.2039737 0.4552471 -0.2829892 0.093968965 0.03168215 -0.42491892 -0.619259 -0.08020572 0.11249136 -0.4850856 1.6660835 -0.079248875 0.8198369 1.0557945 -0.03030801 0.15918355 1.0555419 -1.2977833 0.5063246 -0.12830766 -0.5630034 -0.4407648 -0.62330157 0.60387164 -0.07459233 -0.08041704 -0.38651484 1.1103772 -0.70102024 0.4641644 -1.0962977 0.07605544 1.0246246 1.5950729 -1.0960176 -1.3827525 0.51687074 -0.007982234 0.6418096 -0.7142128 -1.2094005 -1.4454156 0.13132422
tão -0.11456601 -0.2188299 -0.4365321 1.3175197 -0.89032966 -0.9171249 -0.64758617 1.0978228 -0.028631823 0.12478324 -0.45512137 -0.24839494 1.9958819 0.13344574 -0.20469311 0.020504145 1.515835 -0.37337682 0.5837231 -0.72004133 0.46246305 -0.6267047 -0.77945995 -0.2738094 -1.3794724 -0.88088596 -0.105944335 0.62869215 0.85605884 0.7781549 0.40342113 -0.7811237 -0.2634265 0.29252234 0.027305469 1.5782975 -0.4072032 -0.02654422 -0.1481751 1.3486664 1.7510154 0.4027901 0.14657368 0.5385948 0.21421878 0.69035673 0.29913306 0.4300203 0.12351418 -0.15431733 0.21197918 -0.11922465 0.7323747 0.6377519 -0.2884103 0.9136703 -0.1791207 -0.5253149 -0.6044227 -0.39430225 0.07371491 -0.14709418 0.054824233 -0.6249384 0.56247133 0.5894951 -0.34170124 0.81741816 0.9210532 0.7412043 0.88033134 0.39510044 0.4214089 0.612706 0.9661715 1.0938568 0.43362302 -0.5885682 0.8821876 0.75255644 -1.1454047 -0.18113086 -0.564115 -0.110647485 -0.6581682 -1.8924967 -0.49145192 0.07573275 0.55425406 0.34154034 0.31438 0.43793935 -0.14533435 -0.32022345 -0.7032075 -0.71069807 0.29304895 -0.31184664 0.6062901 0.42949563
sr -0.73719937 0.6272583 1.4926653 -1.1607014 0.6461839 -0.36940095 1.2790004 0.55642873 -1.0979428 1.0140386 -1.0779082 -2.7861662 -1.0107943 0.093941234 -0.2874888 1.3707175 0.014136067 2.2580998 2.3660471 -0.99614453 -0.44135445 0.3731757 0.6608355 0.96894443 0.8083672 1.6011437 1.6556972 0.68481064 0.77592695 1.0504628 0.61364985 -0.23825161 0.019919869 -0.015865495 0.10257201 -0.7636284 0.35317847 0.7158681 -0.09998035 -0.41869092 -0.49995205 -0.28129625 0.39984846 -1.1012098 -0.6103776 -0.3626243 1.446507 1.3345289 -1.1483755 -0.5869513 0.74759203 -1.8711168 2.7628388 0.4724536 -2.4683735 1.2395185 1.3811516 0.7084433 0.49135435 0.58627045 1.361248 -0.9561772 1.0861784 -0.14653796 -0.6048292 0.892049 0.38035464 1.1565521 -0.5875399 -0.78630304 -0.06186311 1.7155765 1.257034 0.08859845 -0.80210114 2.6300225 -2.142722 1.9440844 -0.89706963 -0.2695605 0.92787254 -0.040120732 -0.49016306 -0.3491219 0.94146657 0.23387423 1.1804675 -0.7703275 1.2323546 1.5097097 1.5247135 -0.83239657 -1.0092268 -0.39907697 -0.02041435 0.78514636 -0.84748346 0.39505026 -0.9234413 1.1731061
